{"learner":{"attributes":{"best_iteration":"499","best_score":"1.095696444375395"},"feature_names":[],"feature_types":[],"gradient_booster":{"model":{"gbtree_model_param":{"num_parallel_tree":"1","num_trees":"500"},"iteration_indptr":[0,1,2,3,4,5,6,7,8,9,10,11,12,13,14,15,16,17,18,19,20,21,22,23,24,25,26,27,28,29,30,31,32,33,34,35,36,37,38,39,40,41,42,43,44,45,46,47,48,49,50,51,52,53,54,55,56,57,58,59,60,61,62,63,64,65,66,67,68,69,70,71,72,73,74,75,76,77,78,79,80,81,82,83,84,85,86,87,88,89,90,91,92,93,94,95,96,97,98,99,100,101,102,103,104,105,106,107,108,109,110,111,112,113,114,115,116,117,118,119,120,121,122,123,124,125,126,127,128,129,130,131,132,133,134,135,136,137,138,139,140,141,142,143,144,145,146,147,148,149,150,151,152,153,154,155,156,157,158,159,160,161,162,163,164,165,166,167,168,169,170,171,172,173,174,175,176,177,178,179,180,181,182,183,184,185,186,187,188,189,190,191,192,193,194,195,196,197,198,199,200,201,202,203,204,205,206,207,208,209,210,211,212,213,214,215,216,217,218,219,220,221,222,223,224,225,226,227,228,229,230,231,232,233,234,235,236,237,238,239,240,241,242,243,244,245,246,247,248,249,250,251,252,253,254,255,256,257,258,259,260,261,262,263,264,265,266,267,268,269,270,271,272,273,274,275,276,277,278,279,280,281,282,283,284,285,286,287,288,289,290,291,292,293,294,295,296,297,298,299,300,301,302,303,304,305,306,307,308,309,310,311,312,313,314,315,316,317,318,319,320,321,322,323,324,325,326,327,328,329,330,331,332,333,334,335,336,337,338,339,340,341,342,343,344,345,346,347,348,349,350,351,352,353,354,355,356,357,358,359,360,361,362,363,364,365,366,367,368,369,370,371,372,373,374,375,376,377,378,379,380,381,382,383,384,385,386,387,388,389,390,391,392,393,394,395,396,397,398,399,400,401,402,403,404,405,406,407,408,409,410,411,412,413,414,415,416,417,418,419,420,421,422,423,424,425,426,427,428,429,430,431,432,433,434,435,436,437,438,439,440,441,442,443,444,445,446,447,448,449,450,451,452,453,454,455,456,457,458,459,460,461,462,463,464,465,466,467,468,469,470,471,472,473,474,475,476,477,478,479,480,481,482,483,484,485,486,487,488,489,490,491,492,493,494,495,496,497,498,499,500],"tree_info":[0,0,0,0,0,0,0,0,0,0,0,0,0,0,0,0,0,0,0,0,0,0,0,0,0,0,0,0,0,0,0,0,0,0,0,0,0,0,0,0,0,0,0,0,0,0,0,0,0,0,0,0,0,0,0,0,0,0,0,0,0,0,0,0,0,0,0,0,0,0,0,0,0,0,0,0,0,0,0,0,0,0,0,0,0,0,0,0,0,0,0,0,0,0,0,0,0,0,0,0,0,0,0,0,0,0,0,0,0,0,0,0,0,0,0,0,0,0,0,0,0,0,0,0,0,0,0,0,0,0,0,0,0,0,0,0,0,0,0,0,0,0,0,0,0,0,0,0,0,0,0,0,0,0,0,0,0,0,0,0,0,0,0,0,0,0,0,0,0,0,0,0,0,0,0,0,0,0,0,0,0,0,0,0,0,0,0,0,0,0,0,0,0,0,0,0,0,0,0,0,0,0,0,0,0,0,0,0,0,0,0,0,0,0,0,0,0,0,0,0,0,0,0,0,0,0,0,0,0,0,0,0,0,0,0,0,0,0,0,0,0,0,0,0,0,0,0,0,0,0,0,0,0,0,0,0,0,0,0,0,0,0,0,0,0,0,0,0,0,0,0,0,0,0,0,0,0,0,0,0,0,0,0,0,0,0,0,0,0,0,0,0,0,0,0,0,0,0,0,0,0,0,0,0,0,0,0,0,0,0,0,0,0,0,0,0,0,0,0,0,0,0,0,0,0,0,0,0,0,0,0,0,0,0,0,0,0,0,0,0,0,0,0,0,0,0,0,0,0,0,0,0,0,0,0,0,0,0,0,0,0,0,0,0,0,0,0,0,0,0,0,0,0,0,0,0,0,0,0,0,0,0,0,0,0,0,0,0,0,0,0,0,0,0,0,0,0,0,0,0,0,0,0,0,0,0,0,0,0,0,0,0,0,0,0,0,0,0,0,0,0,0,0,0,0,0,0,0,0,0,0,0,0,0,0,0,0,0,0,0,0,0,0,0,0,0,0,0,0,0,0,0,0,0,0,0,0,0,0,0,0,0,0,0,0,0,0,0,0,0,0,0,0,0,0,0,0,0,0,0,0,0,0,0,0,0,0,0,0,0,0,0,0,0,0,0,0,0,0,0],"trees":[{"base_weights":[6.20712E-4,-1.23014905E-1,1.2116323E0,-6.6633455E-2,-1.2352759E0,1.0371566E0,2.3751872E0,3.8230807E-1,-1.7280422E-1,-1.0921642E0,-2.0631368E0,9.1437066E-1,2.7003763E0,5.681995E-1,2.7569487E0,6.0923636E-2,9.200099E-3,-1.1552501E-2,3.4505606E-2,-4.0818408E-2,-7.606988E-2,-2.5167797E-2,-1.2917261E-1,4.1553654E-2,1.24458484E-1,1.397042E-1,-1.6648127E-2,4.9326263E-2,-2.1729635E-2,1.5605997E-1,9.248851E-2],"categories":[],"categories_nodes":[],"categories_segments":[],"categories_sizes":[],"default_left":[1,1,1,0,1,1,0,0,1,0,1,1,1,1,1,0,0,0,0,0,0,0,0,0,0,0,0,0,0,0,0],"id":0,"left_children":[1,3,5,7,9,11,13,15,17,19,21,23,25,27,29,-1,-1,-1,-1,-1,-1,-1,-1,-1,-1,-1,-1,-1,-1,-1,-1],"loss_changes":[2.9641838E3,1.1255543E3,3.681543E2,8.147854E2,9.8769775E1,3.2186267E2,1.609524E2,5.411288E2,6.948922E2,8.5309326E1,9.941504E1,1.9159375E2,3.31438E1,1.8742937E1,5.6507446E1,0E0,0E0,0E0,0E0,0E0,0E0,0E0,0E0,0E0,0E0,0E0,0E0,0E0,0E0,0E0,0E0],"parents":[2147483647,0,0,1,1,2,2,3,3,4,4,5,5,6,6,7,7,8,8,9,9,10,10,11,11,12,12,13,13,14,14],"right_children":[2,4,6,8,10,12,14,16,18,20,22,24,26,28,30,-1,-1,-1,-1,-1,-1,-1,-1,-1,-1,-1,-1,-1,-1,-1,-1],"split_conditions":[3.0030653E-1,4.986692E-1,4.1555774E-1,6.5731966E-1,3.8127147E-2,1.3029341E-1,1.07814595E-1,5.965608E-1,2.5112644E-1,8.850312E-1,2.0557681E-2,1.9862206E-1,9.0498134E-2,9.051541E-2,2.3513886E-1,6.0923636E-2,9.200099E-3,-1.1552501E-2,3.4505606E-2,-4.0818408E-2,-7.606988E-2,-2.5167797E-2,-1.2917261E-1,4.1553654E-2,1.24458484E-1,1.397042E-1,-1.6648127E-2,4.9326263E-2,-2.1729635E-2,1.5605997E-1,9.248851E-2],"split_indices":[65,329,249,196,206,131,234,102,298,329,295,227,298,104,338,0,0,0,0,0,0,0,0,0,0,0,0,0,0,0,0],"split_type":[0,0,0,0,0,0,0,0,0,0,0,0,0,0,0,0,0,0,0,0,0,0,0,0,0,0,0,0,0,0,0],"sum_hessian":[1.9792E4,1.7959E4,1.833E3,1.7094E4,8.65E2,1.596E3,2.37E2,3.268E3,1.3826E4,7.4E2,1.25E2,1.488E3,1.08E2,4.2E1,1.95E2,6.25E2,2.643E3,1.2953E4,8.73E2,4.53E2,2.87E2,3.2E1,9.3E1,1.415E3,7.3E1,1.05E2,3E0,3E1,1.2E1,1.37E2,5.8E1],"tree_param":{"num_deleted":"0","num_feature":"350","num_nodes":"31","size_leaf_vector":"1"}},{"base_weights":[1.3162371E-3,-1.1272278E-1,1.0885187E0,3.3316192E-1,-2.1203679E-1,9.602606E-1,2.5114515E0,1.1768963E0,1.3148661E-1,-2.630457E-1,5.918539E-1,-2.2285416E0,9.897077E-1,2.909837E0,-2.9814187E-1,8.298655E-2,2.7801592E-2,-6.321032E-2,9.753644E-3,6.720194E-2,-1.4404262E-2,3.189311E-2,-1.7054255E-1,-2.72391E-2,-1.1972257E-1,2.4477743E-2,5.954613E-2,1.7195404E-1,1.0869052E-1,-1.3952662E-1,3.4267858E-2],"categories":[],"categories_nodes":[],"categories_segments":[],"categories_sizes":[],"default_left":[1,0,1,0,1,0,1,1,0,0,1,0,1,0,1,0,0,0,0,0,0,0,0,0,0,0,0,0,0,0,0],"id":1,"left_children":[1,3,5,7,9,11,13,15,17,19,21,23,25,27,29,-1,-1,-1,-1,-1,-1,-1,-1,-1,-1,-1,-1,-1,-1,-1,-1],"loss_changes":[2.4630469E3,7.96034E2,3.4005273E2,5.562962E2,6.028964E2,1.6422241E2,1.7566516E2,1.8712714E2,2.3435883E2,5.562676E2,1.6229538E2,1.6955719E0,1.7137256E2,4.2694702E1,5.199037E1,0E0,0E0,0E0,0E0,0E0,0E0,0E0,0E0,0E0,0E0,0E0,0E0,0E0,0E0,0E0,0E0],"parents":[2147483647,0,0,1,1,2,2,3,3,4,4,5,5,6,6,7,7,8,8,9,9,10,10,11,11,12,12,13,13,14,14],"right_children":[2,4,6,8,10,12,14,16,18,20,22,24,26,28,30,-1,-1,-1,-1,-1,-1,-1,-1,-1,-1,-1,-1,-1,-1,-1,-1],"split_conditions":[2.8806454E-1,6.5731966E-1,4.7813708E-1,5.965608E-1,2.5112644E-1,6.1406225E-1,9.051541E-2,6.0931332E-2,8.561079E-1,6.610354E-2,3.8502067E-1,4.7834313E-1,1.7677411E-2,1.7886712E-1,3.860808E-2,8.298655E-2,2.7801592E-2,-6.321032E-2,9.753644E-3,6.720194E-2,-1.4404262E-2,3.189311E-2,-1.7054255E-1,-2.72391E-2,-1.1972257E-1,2.4477743E-2,5.954613E-2,1.7195404E-1,1.0869052E-1,-1.3952662E-1,3.4267858E-2],"split_indices":[65,196,249,102,298,19,104,258,300,241,226,30,139,225,139,0,0,0,0,0,0,0,0,0,0,0,0,0,0,0,0],"split_type":[0,0,0,0,0,0,0,0,0,0,0,0,0,0,0,0,0,0,0,0,0,0,0,0,0,0,0,0,0,0,0],"sum_hessian":[1.986E4,1.7975E4,1.885E3,3.273E3,1.4702E4,1.731E3,1.54E2,6.3E2,2.643E3,1.3826E4,8.76E2,1.5E1,1.716E3,1.35E2,1.9E1,3.53E2,2.77E2,1.14E2,2.529E3,2.11E2,1.3615E4,8.67E2,9E0,2E0,1.3E1,4.94E2,1.222E3,7.6E1,5.9E1,5E0,1.4E1],"tree_param":{"num_deleted":"0","num_feature":"350","num_nodes":"31","size_leaf_vector":"1"}},{"base_weights":[4.686519E-3,-1.01652496E-1,1.1779577E0,-4.9460758E-2,-1.115119E0,1.0040491E0,2.260155E0,-9.822708E-2,9.546704E-1,-9.932724E-1,-2.0796275E0,8.45059E-1,2.377832E0,-6.621807E-2,2.5393586E0,2.9436836E-3,-1.8698268E-2,1.4898412E-1,3.60362E-2,-1.1940916E-1,-4.5350585E-2,6.7524575E-3,-1.1553595E-1,7.9794966E-2,3.272735E-2,1.2743671E-1,-7.5656697E-3,2.7009312E-2,-1.3499363E-1,1.3208403E-1,-5.8005016E-2],"categories":[],"categories_nodes":[],"categories_segments":[],"categories_sizes":[],"default_left":[1,1,1,1,1,1,0,0,0,0,0,0,1,1,1,0,0,0,0,0,0,0,0,0,0,0,0,0,0,0,0],"id":2,"left_children":[1,3,5,7,9,11,13,15,17,19,21,23,25,27,29,-1,-1,-1,-1,-1,-1,-1,-1,-1,-1,-1,-1,-1,-1,-1,-1],"loss_changes":[2.4636335E3,9.568073E2,3.0494043E2,8.426951E2,1.0052246E2,3.056588E2,1.4819897E2,7.114724E2,3.735766E2,9.11236E1,5.1555542E1,1.7963916E2,6.469098E1,4.2464767E1,8.026941E1,0E0,0E0,0E0,0E0,0E0,0E0,0E0,0E0,0E0,0E0,0E0,0E0,0E0,0E0,0E0,0E0],"parents":[2147483647,0,0,1,1,2,2,3,3,4,4,5,5,6,6,7,7,8,8,9,9,10,10,11,11,12,12,13,13,14,14],"right_children":[2,4,6,8,10,12,14,16,18,20,22,24,26,28,30,-1,-1,-1,-1,-1,-1,-1,-1,-1,-1,-1,-1,-1,-1,-1,-1],"split_conditions":[3.5201487E-1,4.8332483E-1,4.1555774E-1,2.1237686E-2,3.932441E-2,6.1172366E-1,5.57794E-2,2.00001E0,6.302213E-2,5.0999004E-1,2.5436985E-1,1.6759036E-1,2.6843977E-1,6.166882E-2,6.2144782E-2,2.9436836E-3,-1.8698268E-2,1.4898412E-1,3.60362E-2,-1.1940916E-1,-4.5350585E-2,6.7524575E-3,-1.1553595E-1,7.9794966E-2,3.272735E-2,1.2743671E-1,-7.5656697E-3,2.7009312E-2,-1.3499363E-1,1.3208403E-1,-5.8005016E-2],"split_indices":[65,329,249,249,141,325,234,164,135,291,301,187,338,207,218,0,0,0,0,0,0,0,0,0,0,0,0,0,0,0,0],"split_type":[0,0,0,0,0,0,0,0,0,0,0,0,0,0,0,0,0,0,0,0,0,0,0,0,0,0,0,0,0,0,0],"sum_hessian":[1.974E4,1.81E4,1.64E3,1.7215E4,8.85E2,1.415E3,2.25E2,1.6419E4,7.96E2,7.88E2,9.7E1,1.27E3,1.45E2,2.4E1,2.01E2,1.0459E4,5.96E3,8.1E1,7.15E2,4.4E1,7.44E2,9E0,8.8E1,2.55E2,1.015E3,1.36E2,9E0,2E1,4E0,1.96E2,5E0],"tree_param":{"num_deleted":"0","num_feature":"350","num_nodes":"31","size_leaf_vector":"1"}},{"base_weights":[-9.377849E-3,-8.073296E-2,1.0442835E0,8.1428415E-1,-1.3166583E-1,1.4785162E-1,8.809355E-1,7.504367E-1,1.6753319E-1,3.212925E-2,-4.0059108E-1,-2.2834663E0,9.792197E-1,2.3501884E-2,6.119422E-2,7.953507E-3,-2.0609017E-2,2.2812432E-2,-2.5496647E-2,-5.0956227E-2,-1.5270108E-1,3.2548167E-2,8.549931E-2],"categories":[],"categories_nodes":[],"categories_segments":[],"categories_sizes":[],"default_left":[1,0,0,1,0,0,0,0,0,1,0,0,1,0,0,0,0,0,0,0,0,0,0],"id":3,"left_children":[1,3,5,7,9,-1,11,13,-1,15,17,19,21,-1,-1,-1,-1,-1,-1,-1,-1,-1,-1],"loss_changes":[1.4865188E3,8.441971E2,3.872804E2,1.5689044E2,7.722816E2,0E0,3.6142334E2,1.2788043E2,0E0,6.143157E2,6.2197595E2,2.8949585E1,2.670901E2,0E0,0E0,0E0,0E0,0E0,0E0,0E0,0E0,0E0,0E0],"parents":[2147483647,0,0,1,1,2,2,3,3,4,4,6,6,7,7,9,9,10,10,11,11,12,12],"right_children":[2,4,6,8,10,-1,12,14,-1,16,18,20,22,-1,-1,-1,-1,-1,-1,-1,-1,-1,-1],"split_conditions":[2.1237686E-2,9.170428E-1,7.3116876E-2,4.8433724E-1,2.00001E0,1.4785162E-1,1.1306681E-1,3.5551703E-1,1.6753319E-1,5.5158336E-2,7.0470756E-1,2.6198986E-1,4.174395E-1,2.3501884E-2,6.119422E-2,7.953507E-3,-2.0609017E-2,2.2812432E-2,-2.5496647E-2,-5.0956227E-2,-1.5270108E-1,3.2548167E-2,8.549931E-2],"split_indices":[249,332,135,215,164,0,191,109,0,205,102,109,88,0,0,0,0,0,0,0,0,0,0],"split_type":[0,0,0,0,0,0,0,0,0,0,0,0,0,0,0,0,0,0,0,0,0,0,0],"sum_hessian":[1.9776E4,1.8523E4,1.253E3,9.96E2,1.7527E4,9.7E1,1.156E3,9.73E2,2.3E1,1.0892E4,6.635E3,3.4E1,1.122E3,6.13E2,3.6E2,8.473E3,2.419E3,7.5E2,5.885E3,1.4E1,2E1,7.76E2,3.46E2],"tree_param":{"num_deleted":"0","num_feature":"350","num_nodes":"23","size_leaf_vector":"1"}},{"base_weights":[-5.74744E-3,-1.0646362E-1,9.867087E-1,5.9363812E-2,-3.4861407E-1,8.485847E-1,2.1169791E0,9.1334194E-1,1.6282871E-2,-1.42186E-1,-5.712077E-1,6.893523E-1,1.7755653E0,2.6049213E0,1.1803863E0,5.7318617E-2,-7.3001767E-3,-1.5959761E-3,4.0183675E-2,-2.2116704E-3,-5.4749727E-2,-3.8229883E-2,-1.1462144E-2,1.4613532E-1,3.1465773E-2,1.01374485E-1,5.9142424E-4,-4.0299594E-3,1.3818838E-1,1.2582918E-1,3.1171933E-2],"categories":[],"categories_nodes":[],"categories_segments":[],"categories_sizes":[],"default_left":[1,1,1,0,0,1,0,1,1,1,1,0,1,0,1,0,0,0,0,0,0,0,0,0,0,0,0,0,0,0,0],"id":4,"left_children":[1,3,5,7,9,11,13,15,17,19,21,23,25,27,29,-1,-1,-1,-1,-1,-1,-1,-1,-1,-1,-1,-1,-1,-1,-1,-1],"loss_changes":[1.9832996E3,7.236815E2,2.8210352E2,3.9295453E2,3.3614282E2,2.3828784E2,8.5519104E1,1.2730655E2,3.8686026E2,3.543162E2,2.3231274E2,1.8329712E2,1.0470648E2,5.659381E1,4.8954475E1,0E0,0E0,0E0,0E0,0E0,0E0,0E0,0E0,0E0,0E0,0E0,0E0,0E0,0E0,0E0,0E0],"parents":[2147483647,0,0,1,1,2,2,3,3,4,4,5,5,6,6,7,7,8,8,9,9,10,10,11,11,12,12,13,13,14,14],"right_children":[2,4,6,8,10,12,14,16,18,20,22,24,26,28,30,-1,-1,-1,-1,-1,-1,-1,-1,-1,-1,-1,-1,-1,-1,-1,-1],"split_conditions":[3.0030653E-1,1.4566703E-1,2.824305E-1,4.5609117E-1,1.6296622E-1,4.0919185E-1,1.5104112E-1,6.569108E-2,2.8483272E-1,1.0850489E-1,2.5985297E-2,4.787819E-1,1.6336699E-1,3.1035325E-1,3.182217E-2,5.7318617E-2,-7.3001767E-3,-1.5959761E-3,4.0183675E-2,-2.2116704E-3,-5.4749727E-2,-3.8229883E-2,-1.1462144E-2,1.4613532E-1,3.1465773E-2,1.01374485E-1,5.9142424E-4,-4.0299594E-3,1.3818838E-1,1.2582918E-1,3.1171933E-2],"split_indices":[65,258,171,326,145,325,278,119,298,202,298,59,205,207,167,0,0,0,0,0,0,0,0,0,0,0,0,0,0,0,0],"split_type":[0,0,0,0,0,0,0,0,0,0,0,0,0,0,0,0,0,0,0,0,0,0,0,0,0,0,0,0,0,0,0],"sum_hessian":[1.9844E4,1.8017E4,1.827E3,1.0693E4,7.324E3,1.63E3,1.97E2,5.12E2,1.0181E4,3.802E3,3.522E3,1.393E3,2.37E2,1.28E2,6.9E1,4.2E2,9.2E1,9.594E3,5.87E2,3.449E3,3.53E2,2.248E3,1.274E3,3.5E1,1.358E3,2.07E2,3E1,7E0,1.21E2,1.9E1,5E1],"tree_param":{"num_deleted":"0","num_feature":"350","num_nodes":"31","size_leaf_vector":"1"}},{"base_weights":[6.023835E-3,-6.1128356E-2,9.837953E-1,-1.1925772E-2,-1.0193105E0,1.3740052E-1,8.3290017E-1,-5.180038E-2,1.0346297E0,-9.201436E-1,-2.1510243E0,-2.0248852E0,9.122697E-1,4.005506E-3,-1.4203097E-2,3.2755088E-2,1.0047846E-1,-4.322656E-2,-1.5618424E-1,-1.2437133E-1,6.670551E-3,-4.097203E-2,-1.34109E-1,8.455674E-3,5.6781877E-2],"categories":[],"categories_nodes":[],"categories_segments":[],"categories_sizes":[],"default_left":[1,1,0,1,1,0,0,0,1,1,1,0,0,0,0,0,0,0,0,0,0,0,0,0,0],"id":5,"left_children":[1,3,5,7,9,-1,11,13,15,17,19,21,23,-1,-1,-1,-1,-1,-1,-1,-1,-1,-1,-1,-1],"loss_changes":[1.3057008E3,8.764172E2,3.3613892E2,7.379504E2,9.838873E1,0E0,2.68713E2,5.223756E2,2.3749213E2,9.787488E1,5.6840027E1,2.1405945E1,1.8972034E2,0E0,0E0,0E0,0E0,0E0,0E0,0E0,0E0,0E0,0E0,0E0,0E0],"parents":[2147483647,0,0,1,1,2,2,3,3,4,4,6,6,7,7,8,8,9,9,10,10,11,11,12,12],"right_children":[2,4,6,8,10,-1,12,14,16,18,20,22,24,-1,-1,-1,-1,-1,-1,-1,-1,-1,-1,-1,-1],"split_conditions":[2.1237686E-2,4.8332483E-1,7.3116876E-2,4.71849E-1,1.1185302E-1,1.3740052E-1,1.1306681E-1,2.00001E0,5.244797E-1,7.5883746E-1,2.4493955E-1,2.6198986E-1,1.9941802E-1,4.005506E-3,-1.4203097E-2,3.2755088E-2,1.0047846E-1,-4.322656E-2,-1.5618424E-1,-1.2437133E-1,6.670551E-3,-4.097203E-2,-1.34109E-1,8.455674E-3,5.6781877E-2],"split_indices":[249,329,135,86,295,0,191,164,325,29,343,109,211,0,0,0,0,0,0,0,0,0,0,0,0],"split_type":[0,0,0,0,0,0,0,0,0,0,0,0,0,0,0,0,0,0,0,0,0,0,0,0,0],"sum_hessian":[1.9877E4,1.86E4,1.277E3,1.7693E4,9.07E2,9.9E1,1.178E3,1.7045E4,6.48E2,8.36E2,7.1E1,3.1E1,1.147E3,1.087E4,6.175E3,4.68E2,1.8E2,8.17E2,1.9E1,6.2E1,9E0,1.2E1,1.9E1,2.66E2,8.81E2],"tree_param":{"num_deleted":"0","num_feature":"350","num_nodes":"25","size_leaf_vector":"1"}},{"base_weights":[-1.590071E-2,-1.0353606E-1,9.637652E-1,-6.400237E-2,-1.1140859E0,8.335782E-1,1.9572372E0,3.3397335E-1,-1.569219E-1,-1.1732914E0,1.0876111E0,9.126379E-1,-5.7307947E-1,2.1564527E0,7.690952E-2,1.0646469E-2,5.631206E-2,-1.0144151E-2,2.8339466E-2,-4.892039E-3,-6.480102E-2,-4.4116336E-3,6.356781E-2,5.7769068E-2,1.7267402E-2,-8.2397185E-2,3.265507E-2,-7.946813E-2,1.1188569E-1,3.3337995E-2,-8.040118E-2],"categories":[],"categories_nodes":[],"categories_segments":[],"categories_sizes":[],"default_left":[1,1,1,0,1,1,1,1,1,0,0,1,1,0,0,0,0,0,0,0,0,0,0,0,0,0,0,0,0,0,0],"id":6,"left_children":[1,3,5,7,9,11,13,15,17,19,21,23,25,27,29,-1,-1,-1,-1,-1,-1,-1,-1,-1,-1,-1,-1,-1,-1,-1,-1],"loss_changes":[1.6803352E3,7.17255E2,2.0481787E2,6.395281E2,8.943732E1,1.5894446E2,6.801672E1,3.1296887E2,4.6637424E2,8.615698E1,4.5927353E0,1.8447815E2,1.0174001E2,5.4713623E1,1.9484846E1,0E0,0E0,0E0,0E0,0E0,0E0,0E0,0E0,0E0,0E0,0E0,0E0,0E0,0E0,0E0,0E0],"parents":[2147483647,0,0,1,1,2,2,3,3,4,4,5,5,6,6,7,7,8,8,9,9,10,10,11,11,12,12,13,13,14,14],"right_children":[2,4,6,8,10,12,14,16,18,20,22,24,26,28,30,-1,-1,-1,-1,-1,-1,-1,-1,-1,-1,-1,-1,-1,-1,-1,-1],"split_conditions":[3.5201487E-1,6.398055E-1,2.860363E-1,6.5731966E-1,3.058967E-1,2.1155232E-1,5.0938165E-1,6.551232E-2,2.5112644E-1,7.602702E-2,2.00001E0,2.5000706E-2,4.734381E-1,5.330954E-2,5.2081484E-1,1.0646469E-2,5.631206E-2,-1.0144151E-2,2.8339466E-2,-4.892039E-3,-6.480102E-2,-4.4116336E-3,6.356781E-2,5.7769068E-2,1.7267402E-2,-8.2397185E-2,3.265507E-2,-7.946813E-2,1.1188569E-1,3.3337995E-2,-8.040118E-2],"split_indices":[65,329,171,196,293,166,326,225,298,150,40,205,86,234,65,0,0,0,0,0,0,0,0,0,0,0,0,0,0,0,0],"split_type":[0,0,0,0,0,0,0,0,0,0,0,0,0,0,0,0,0,0,0,0,0,0,0,0,0,0,0,0,0,0,0],"sum_hessian":[1.9575E4,1.7969E4,1.606E3,1.7294E4,6.75E2,1.422E3,1.84E2,3.272E3,1.4022E4,6.58E2,1.7E1,1.347E3,7.5E1,1.66E2,1.8E1,2.84E3,4.32E2,1.3186E4,8.36E2,6.8E1,5.9E2,2E0,1.5E1,9.42E2,4.05E2,4E1,3.5E1,3E0,1.63E2,1.4E1,4E0],"tree_param":{"num_deleted":"0","num_feature":"350","num_nodes":"31","size_leaf_vector":"1"}},{"base_weights":[-5.5687698E-3,-7.142298E-2,8.792959E-1,8.2338023E-1,-1.18799835E-1,7.0913064E-1,2.119846E0,5.740526E-1,1.8338959E0,-7.557419E-2,-9.5317906E-1,6.488418E-1,1.4132236E-1,-7.752689E-2,2.3761492E0,-2.367286E-2,3.753521E-2,1.09344244E-1,8.218704E-4,-5.6488067E-3,4.0843453E-2,-5.39782E-2,1.4642793E-3,3.5701174E-2,-4.6281002E-2,3.101635E-3,-7.3750995E-2,9.059226E-2,1.5211134E-1],"categories":[],"categories_nodes":[],"categories_segments":[],"categories_sizes":[],"default_left":[1,0,1,1,1,1,0,0,0,1,1,1,0,0,0,0,0,0,0,0,0,0,0,0,0,0,0,0,0],"id":7,"left_children":[1,3,5,7,9,11,13,15,17,19,21,23,-1,25,27,-1,-1,-1,-1,-1,-1,-1,-1,-1,-1,-1,-1,-1,-1],"loss_changes":[1.1567671E3,7.8329474E2,2.8734277E2,2.3180432E2,6.3256244E2,1.510133E2,9.42605E1,1.3872212E2,1.1626477E2,5.569044E2,1.0783844E2,1.215513E2,0E0,4.3085966E0,4.768976E1,0E0,0E0,0E0,0E0,0E0,0E0,0E0,0E0,0E0,0E0,0E0,0E0,0E0,0E0],"parents":[2147483647,0,0,1,1,2,2,3,3,4,4,5,5,6,6,7,7,8,8,9,9,10,10,11,11,13,13,14,14],"right_children":[2,4,6,8,10,12,14,16,18,20,22,24,-1,26,28,-1,-1,-1,-1,-1,-1,-1,-1,-1,-1,-1,-1,-1,-1],"split_conditions":[3.1644547E-1,1E0,5.1144314E-1,6.1172366E-1,4.986692E-1,1.7808525E-1,5.590092E-2,1.3608705E-1,3.1480438E-1,1.4569123E-1,8.998231E-2,1.0408907E-1,1.4132236E-1,4.1581184E-1,1.8124174E-1,-2.367286E-2,3.753521E-2,1.09344244E-1,8.218704E-4,-5.6488067E-3,4.0843453E-2,-5.39782E-2,1.4642793E-3,3.5701174E-2,-4.6281002E-2,3.101635E-3,-7.3750995E-2,9.059226E-2,1.5211134E-1],"split_indices":[88,86,249,325,329,286,234,228,294,249,219,233,0,88,196,0,0,0,0,0,0,0,0,0,0,0,0,0,0],"split_type":[0,0,0,0,0,0,0,0,0,0,0,0,0,0,0,0,0,0,0,0,0,0,0,0,0,0,0,0,0],"sum_hessian":[1.9856E4,1.8482E4,1.374E3,9.28E2,1.7554E4,1.21E3,1.64E2,7.46E2,1.82E2,1.6691E4,8.63E2,1.178E3,3.2E1,1.7E1,1.47E2,1.07E2,6.39E2,1.52E2,3E1,1.6021E4,6.7E2,7.65E2,9.8E1,1.132E3,4.6E1,1.6E1,1E0,8.2E1,6.5E1],"tree_param":{"num_deleted":"0","num_feature":"350","num_nodes":"29","size_leaf_vector":"1"}},{"base_weights":[-1.5644241E-2,-7.644871E-2,8.2697946E-1,-2.0966822E-2,-7.537678E-1,6.4403474E-1,1.9185947E0,-2.8024423E-1,9.763152E-2,-4.725296E-1,-1.5306439E0,2.147975E0,5.5466634E-1,-4.520943E-1,2.2527993E0,4.212832E-3,-2.3688583E-2,2.184183E-3,4.6717692E-2,1.1176192E-2,-3.9134566E-2,-1.4945865E-1,-6.660162E-2,1.2648538E-1,-1.839711E-2,2.1087185E-2,7.318435E-2,3.340459E-3,-1.2686446E-1,1.2368397E-1,5.533954E-2],"categories":[],"categories_nodes":[],"categories_segments":[],"categories_sizes":[],"default_left":[1,1,1,1,1,0,0,0,1,0,0,1,1,0,1,0,0,0,0,0,0,0,0,0,0,0,0,0,0,0,0],"id":8,"left_children":[1,3,5,7,9,11,13,15,17,19,21,23,25,27,29,-1,-1,-1,-1,-1,-1,-1,-1,-1,-1,-1,-1,-1,-1,-1,-1],"loss_changes":[1.0071786E3,6.8886975E2,2.6169305E2,5.214827E2,3.0153552E2,1.5000662E2,1.516626E2,3.7572394E2,5.245766E2,2.208773E2,1.00460205E2,6.2517303E1,1.2809E2,2.7373112E1,3.7491516E1,0E0,0E0,0E0,0E0,0E0,0E0,0E0,0E0,0E0,0E0,0E0,0E0,0E0,0E0,0E0,0E0],"parents":[2147483647,0,0,1,1,2,2,3,3,4,4,5,5,6,6,7,7,8,8,9,9,10,10,11,11,12,12,13,13,14,14],"right_children":[2,4,6,8,10,12,14,16,18,20,22,24,26,28,30,-1,-1,-1,-1,-1,-1,-1,-1,-1,-1,-1,-1,-1,-1,-1,-1],"split_conditions":[3.2989362E-1,1.5169804E-1,4.7813708E-1,7.8841664E-2,1.466145E-1,3.995155E-2,5.590092E-2,1.3616443E-1,4.2972345E-2,7.8777544E-2,3.7921944E-1,2.454752E-2,7.231467E-2,4.1581184E-1,1.1272937E-1,4.212832E-3,-2.3688583E-2,2.184183E-3,4.6717692E-2,1.1176192E-2,-3.9134566E-2,-1.4945865E-1,-6.660162E-2,1.2648538E-1,-1.839711E-2,2.1087185E-2,7.318435E-2,3.340459E-3,-1.2686446E-1,1.2368397E-1,5.533954E-2],"split_indices":[88,329,249,130,202,180,234,226,135,298,80,267,254,88,239,0,0,0,0,0,0,0,0,0,0,0,0,0,0,0,0],"split_type":[0,0,0,0,0,0,0,0,0,0,0,0,0,0,0,0,0,0,0,0,0,0,0,0,0,0,0,0,0,0,0],"sum_hessian":[1.9663E4,1.8341E4,1.322E3,1.6954E4,1.387E3,1.134E3,1.88E2,5.322E3,1.1632E4,1.02E3,3.67E2,6.2E1,1.072E3,2.3E1,1.65E2,1.845E3,3.477E3,1.0929E4,7.03E2,3.14E2,7.06E2,4.2E1,3.25E2,5.4E1,8E0,9.37E2,1.35E2,1.9E1,4E0,1.37E2,2.8E1],"tree_param":{"num_deleted":"0","num_feature":"350","num_nodes":"31","size_leaf_vector":"1"}},{"base_weights":[1.3762768E-3,-8.279877E-2,7.852007E-1,8.164616E-2,-2.8418186E-1,-2.3910055E0,8.1523585E-1,7.2930723E-1,7.6773637E-3,8.986791E-1,-3.359139E-1,-3.1847414E-2,-1.2696017E-1,7.417685E-1,2.0306041E0,5.6596536E-2,4.075381E-3,6.9355518E-3,-1.5448289E-2,2.794061E-2,1.2865187E-1,-1.943405E-2,1.578335E-2,3.0752271E-2,7.934405E-2,4.5740385E-2,1.16809905E-1],"categories":[],"categories_nodes":[],"categories_segments":[],"categories_sizes":[],"default_left":[1,1,0,0,0,0,1,1,0,1,1,0,0,1,1,0,0,0,0,0,0,0,0,0,0,0,0],"id":9,"left_children":[1,3,5,7,9,11,13,15,17,19,21,-1,-1,23,25,-1,-1,-1,-1,-1,-1,-1,-1,-1,-1,-1,-1],"loss_changes":[1.3001259E3,5.892326E2,1.8346643E2,4.687284E2,4.894325E2,1.4736481E0,1.6622253E2,2.609029E2,3.6466287E2,1.8763104E2,2.636632E2,0E0,0E0,1.8940936E2,3.272229E1,0E0,0E0,0E0,0E0,0E0,0E0,0E0,0E0,0E0,0E0,0E0,0E0],"parents":[2147483647,0,0,1,1,2,2,3,3,4,4,5,5,6,6,7,7,8,8,9,9,10,10,13,13,14,14],"right_children":[2,4,6,8,10,12,14,16,18,20,22,-1,-1,24,26,-1,-1,-1,-1,-1,-1,-1,-1,-1,-1,-1,-1],"split_conditions":[2.8806454E-1,1.2989928E-1,6.1406225E-1,5.965608E-1,1.2602314E-1,4.7834313E-1,1.3029341E-1,2.5730688E-2,2.00001E0,1.1385852E-1,8.251732E-2,-3.1847414E-2,-1.2696017E-1,4.1555774E-1,8.4372394E-2,5.6596536E-2,4.075381E-3,6.9355518E-3,-1.5448289E-2,2.794061E-2,1.2865187E-1,-1.943405E-2,1.578335E-2,3.0752271E-2,7.934405E-2,4.5740385E-2,1.16809905E-1],"split_indices":[65,258,19,102,241,30,131,109,164,239,196,0,0,249,223,0,0,0,0,0,0,0,0,0,0,0,0],"split_type":[0,0,0,0,0,0,0,0,0,0,0,0,0,0,0,0,0,0,0,0,0,0,0,0,0,0,0],"sum_hessian":[1.9698E4,1.7788E4,1.91E3,9.791E3,7.997E3,1.7E1,1.893E3,1.002E3,8.789E3,3.34E2,7.663E3,2E0,1.5E1,1.787E3,1.06E2,6.17E2,3.85E2,6.218E3,2.571E3,2.79E2,5.5E1,7.09E3,5.73E2,1.556E3,2.31E2,2.4E1,8.2E1],"tree_param":{"num_deleted":"0","num_feature":"350","num_nodes":"27","size_leaf_vector":"1"}},{"base_weights":[2.1031725E-3,-7.285515E-2,8.2855034E-1,-3.9599683E-2,-1.0545259E0,-1.428842E-1,9.4148415E-1,8.216196E-1,-7.510692E-2,-1.3318979E0,-4.3590474E-1,6.0150634E-2,-1.6198068E0,1.0150481E0,-6.289988E-1,7.2780825E-2,9.190147E-3,3.565849E-2,-5.5345898E-3,6.574011E-3,-7.208382E-2,-1.3376084E-2,-1.146539E-1,1.33307045E-2,-5.3935803E-2,-3.5221945E-2,-1.17123246E-1,5.503046E-2,-1.4304421E-2,-4.8199058E-2,6.466501E-2],"categories":[],"categories_nodes":[],"categories_segments":[],"categories_sizes":[],"default_left":[1,1,0,0,1,1,1,1,0,0,1,1,0,1,1,0,0,0,0,0,0,0,0,0,0,0,0,0,0,0,0],"id":10,"left_children":[1,3,5,7,9,11,13,15,17,19,21,23,25,27,29,-1,-1,-1,-1,-1,-1,-1,-1,-1,-1,-1,-1,-1,-1,-1,-1],"loss_changes":[1.220216E3,5.8876794E2,1.802351E2,5.3369855E2,9.994415E1,5.215447E1,1.7043115E2,2.78335E2,4.7027246E2,6.622821E1,5.5958797E1,3.5386833E1,1.0717884E1,1.5691321E2,4.358185E1,0E0,0E0,0E0,0E0,0E0,0E0,0E0,0E0,0E0,0E0,0E0,0E0,0E0,0E0,0E0,0E0],"parents":[2147483647,0,0,1,1,2,2,3,3,4,4,5,5,6,6,7,7,8,8,9,9,10,10,11,11,12,12,13,13,14,14],"right_children":[2,4,6,8,10,12,14,16,18,20,22,24,26,28,30,-1,-1,-1,-1,-1,-1,-1,-1,-1,-1,-1,-1,-1,-1,-1,-1],"split_conditions":[3.5201487E-1,7.275178E-1,1.3796365E-1,8.097528E-1,3.1543633E-1,1.0886746E-1,1.2123818E-1,5.1335648E-2,1.6487362E0,4.3148288E-1,9.126542E-2,4.055488E-2,1.715554E-1,1.5284045E-1,1.12364426E-1,7.2780825E-2,9.190147E-3,3.565849E-2,-5.5345898E-3,6.574011E-3,-7.208382E-2,-1.3376084E-2,-1.146539E-1,1.33307045E-2,-5.3935803E-2,-3.5221945E-2,-1.17123246E-1,5.503046E-2,-1.4304421E-2,-4.8199058E-2,6.466501E-2],"split_indices":[65,329,207,185,258,239,282,258,249,128,103,234,109,201,159,0,0,0,0,0,0,0,0,0,0,0,0,0,0,0,0],"split_type":[0,0,0,0,0,0,0,0,0,0,0,0,0,0,0,0,0,0,0,0,0,0,0,0,0,0,0,0,0,0,0],"sum_hessian":[1.9689E4,1.8052E4,1.637E3,1.7462E4,5.9E2,1.7E2,1.467E3,6.9E2,1.6772E4,4.06E2,1.84E2,1.5E2,2E1,1.402E3,6.5E1,3.45E2,3.45E2,7.23E2,1.6049E4,2.8E1,3.78E2,1.7E2,1.4E1,1.28E2,2.2E1,1E1,1E1,1.316E3,8.6E1,5.6E1,9E0],"tree_param":{"num_deleted":"0","num_feature":"350","num_nodes":"31","size_leaf_vector":"1"}},{"base_weights":[-2.7691764E-3,-5.37347E-2,7.548298E-1,7.274312E-2,-3.3637297E-1,9.87589E-1,-3.2039393E-2,1.7711075E-1,-2.554794E-1,1.5615557E-1,-4.4965264E-1,7.977558E-1,2.2210023E0,-5.7815766E-1,9.8927414E-1,1.6155804E-2,-7.3594763E-3,-1.6278062E-2,4.3593463E-2,1.4550544E-2,-8.395391E-2,-1.8227834E-2,-5.246448E-2,4.918259E-2,-3.8084287E-2,-5.9235157E-3,1.1813127E-1,-4.4234216E-2,6.2059563E-2,-5.2059027E-3,8.401536E-2],"categories":[],"categories_nodes":[],"categories_segments":[],"categories_sizes":[],"default_left":[1,0,1,1,0,1,1,1,1,1,1,1,0,1,0,0,0,0,0,0,0,0,0,0,0,0,0,0,0,0,0],"id":11,"left_children":[1,3,5,7,9,11,13,15,17,19,21,23,25,27,29,-1,-1,-1,-1,-1,-1,-1,-1,-1,-1,-1,-1,-1,-1,-1,-1],"loss_changes":[7.608371E2,6.604836E2,2.2798297E2,4.3714444E2,3.1890936E2,2.2126172E2,1.5876967E2,4.586687E2,2.4319322E2,2.64115E2,2.3592938E2,2.4234192E2,4.3480164E1,1.0464809E2,7.57645E1,0E0,0E0,0E0,0E0,0E0,0E0,0E0,0E0,0E0,0E0,0E0,0E0,0E0,0E0,0E0,0E0],"parents":[2147483647,0,0,1,1,2,2,3,3,4,4,5,5,6,6,7,7,8,8,9,9,10,10,11,11,12,12,13,13,14,14],"right_children":[2,4,6,8,10,12,14,16,18,20,22,24,26,28,30,-1,-1,-1,-1,-1,-1,-1,-1,-1,-1,-1,-1,-1,-1,-1,-1],"split_conditions":[2.1237686E-2,1.2679218E0,1.47108985E-2,5.5313088E-2,1.2022029E-1,1.3639686E-1,4.320421E-1,1.3666408E-2,1.9938016E-1,6.0116272E-2,2.0940168E-1,9.085657E-2,1.9570029E-1,2.940986E-1,1.6765013E-1,1.6155804E-2,-7.3594763E-3,-1.6278062E-2,4.3593463E-2,1.4550544E-2,-8.395391E-2,-1.8227834E-2,-5.246448E-2,4.918259E-2,-3.8084287E-2,-5.9235157E-3,1.1813127E-1,-4.4234216E-2,6.2059563E-2,-5.2059027E-3,8.401536E-2],"split_indices":[249,294,211,205,163,159,88,221,122,131,166,147,207,190,163,0,0,0,0,0,0,0,0,0,0,0,0,0,0,0,0],"split_type":[0,0,0,0,0,0,0,0,0,0,0,0,0,0,0,0,0,0,0,0,0,0,0,0,0,0,0,0,0,0,0],"sum_hessian":[1.9712E4,1.8471E4,1.241E3,1.276E4,5.711E3,9.58E2,2.83E2,9.683E3,3.077E3,1.067E3,4.644E3,8.32E2,1.26E2,1.85E2,9.8E1,6.678E3,3.005E3,2.898E3,1.79E2,9.95E2,7.2E1,4.069E3,5.75E2,7.44E2,8.8E1,7E0,1.19E2,1.59E2,2.6E1,3.8E1,6E1],"tree_param":{"num_deleted":"0","num_feature":"350","num_nodes":"31","size_leaf_vector":"1"}},{"base_weights":[-3.926547E-3,3.586087E-1,-9.657679E-2,9.359059E-1,2.2351205E-1,7.6425046E-1,-1.4376932E-1,1.9307992E0,4.0760693E-1,2.5654206E-1,-1.3204609E0,1.9582853E0,5.2604085E-1,-8.962239E-2,-7.8851277E-1,9.987563E-2,-5.8817156E-2,1.3455872E-2,1.2345369E-1,1.4945201E-2,-4.6330452E-2,1.7817533E-2,-8.855241E-2,-1.04175664E-1,1.0507102E-1,3.906656E-3,4.9413364E-2,-1.3598223E-3,-3.0224055E-2,6.096675E-2,-4.2738166E-2],"categories":[],"categories_nodes":[],"categories_segments":[],"categories_sizes":[],"default_left":[0,0,0,1,1,0,1,1,1,1,0,0,1,1,0,0,0,0,0,0,0,0,0,0,0,0,0,0,0,0,0],"id":12,"left_children":[1,3,5,7,9,11,13,15,17,19,21,23,25,27,29,-1,-1,-1,-1,-1,-1,-1,-1,-1,-1,-1,-1,-1,-1,-1,-1],"loss_changes":[6.6227826E2,3.121886E2,6.379312E2,3.9750067E2,1.6575249E2,2.2982306E2,5.19418E2,5.727704E1,1.4014124E2,1.5969743E2,5.2715866E1,8.2487976E1,1.405873E2,4.4131094E2,1.5423315E2,0E0,0E0,0E0,0E0,0E0,0E0,0E0,0E0,0E0,0E0,0E0,0E0,0E0,0E0,0E0,0E0],"parents":[2147483647,0,0,1,1,2,2,3,3,4,4,5,5,6,6,7,7,8,8,9,9,10,10,11,11,12,12,13,13,14,14],"right_children":[2,4,6,8,10,12,14,16,18,20,22,24,26,28,30,-1,-1,-1,-1,-1,-1,-1,-1,-1,-1,-1,-1,-1,-1,-1,-1],"split_conditions":[6.5731966E-1,8.084991E-1,1E0,5.1335648E-2,1.7464882E-1,7.425321E-2,2.0026162E-1,3.3789432E-1,1.4304486E-1,1.0656598E-1,1.0047381E-1,5.491938E-1,5.2543763E-2,3.531083E-2,4.7669834E-1,9.987563E-2,-5.8817156E-2,1.3455872E-2,1.2345369E-1,1.4945201E-2,-4.6330452E-2,1.7817533E-2,-8.855241E-2,-1.04175664E-1,1.0507102E-1,3.906656E-3,4.9413364E-2,-1.3598223E-3,-3.0224055E-2,6.096675E-2,-4.2738166E-2],"split_indices":[196,225,86,258,205,226,166,278,227,256,201,34,167,202,39,0,0,0,0,0,0,0,0,0,0,0,0,0,0,0,0],"split_type":[0,0,0,0,0,0,0,0,0,0,0,0,0,0,0,0,0,0,0,0,0,0,0,0,0,0,0,0,0,0,0],"sum_hessian":[1.9719E4,4.012E3,1.5707E4,7.59E2,3.253E3,8.15E2,1.4892E4,2.62E2,4.97E2,3.186E3,6.7E1,1.34E2,6.81E2,1.374E4,1.152E3,2.57E2,5E0,4.67E2,3E1,3.077E3,1.09E2,1.4E1,5.3E1,4E0,1.3E2,3.47E2,3.34E2,1.2256E4,1.484E3,3.6E1,1.116E3],"tree_param":{"num_deleted":"0","num_feature":"350","num_nodes":"31","size_leaf_vector":"1"}},{"base_weights":[-6.2289904E-3,-7.808595E-2,7.7595866E-1,-1.3999905E-1,4.2684656E-1,6.6344285E-1,1.7337476E0,-1.0616808E-3,-3.7003124E-1,8.800128E-1,1.2713636E-1,4.9752685E-1,1.5545176E0,1.545906E0,1.5342206E-1,3.6937227E-3,-3.3278916E-2,7.2140805E-2,-2.0197049E-2,3.290728E-2,8.057686E-2,-3.7541303E-3,6.2712446E-2,-4.42999E-3,3.5343025E-2,-1.0713687E-3,8.736841E-2,1.0824354E-1,5.5563193E-2],"categories":[],"categories_nodes":[],"categories_segments":[],"categories_sizes":[],"default_left":[1,1,1,0,1,1,1,1,0,1,1,1,0,0,0,0,0,0,0,0,0,0,0,0,0,0,0,0,0],"id":13,"left_children":[1,3,5,7,9,11,13,15,17,19,21,23,25,27,-1,-1,-1,-1,-1,-1,-1,-1,-1,-1,-1,-1,-1,-1,-1],"loss_changes":[1.106288E3,5.6366284E2,1.7611237E2,5.132525E2,2.668113E2,2.176004E2,3.6322327E1,4.992044E2,3.7185315E2,1.2488635E2,2.71229E2,1.541099E2,7.141028E1,3.7386505E1,0E0,0E0,0E0,0E0,0E0,0E0,0E0,0E0,0E0,0E0,0E0,0E0,0E0,0E0,0E0],"parents":[2147483647,0,0,1,1,2,2,3,3,4,4,5,5,6,6,7,7,8,8,9,9,10,10,11,11,12,12,13,13],"right_children":[2,4,6,8,10,12,14,16,18,20,22,24,26,28,-1,-1,-1,-1,-1,-1,-1,-1,-1,-1,-1,-1,-1,-1,-1],"split_conditions":[3.5201487E-1,5.3652145E-2,5.244797E-1,2.00001E0,6.8586245E-2,4.1555774E-1,6.1132234E-1,1.21974856E-1,2.2086531E-1,3.2117245E-1,6.468329E-2,1.5342538E-2,5.57794E-2,1.0707539E-1,1.5342206E-1,3.6937227E-3,-3.3278916E-2,7.2140805E-2,-2.0197049E-2,3.290728E-2,8.057686E-2,-3.7541303E-3,6.2712446E-2,-4.42999E-3,3.5343025E-2,-1.0713687E-3,8.736841E-2,1.0824354E-1,5.5563193E-2],"split_indices":[65,102,325,164,258,249,332,205,249,334,128,167,234,265,0,0,0,0,0,0,0,0,0,0,0,0,0,0,0],"split_type":[0,0,0,0,0,0,0,0,0,0,0,0,0,0,0,0,0,0,0,0,0,0,0,0,0,0,0,0,0],"sum_hessian":[1.9687E4,1.8032E4,1.655E3,1.6064E4,1.968E3,1.483E3,1.72E2,1.0017E4,6.047E3,7.82E2,1.186E3,1.252E3,2.31E2,1.53E2,1.9E1,9.002E3,1.015E3,1.1E2,5.937E3,6.02E2,1.8E2,1.006E3,1.8E2,3.29E2,9.23E2,2.5E1,2.06E2,6.1E1,9.2E1],"tree_param":{"num_deleted":"0","num_feature":"350","num_nodes":"29","size_leaf_vector":"1"}},{"base_weights":[8.116407E-3,-5.8682982E-2,6.5656185E-1,9.979636E-2,-2.4889687E-1,-2.2011995E0,6.8779397E-1,6.75922E-2,1.2515357E0,8.081633E-1,-2.9235315E-1,-7.5600125E-2,-1.3445981E-1,-1.1416658E-1,7.879851E-1,5.042098E-2,1.7521052E-3,7.139363E-2,-6.098736E-2,2.6593804E-2,1.1603903E-1,-1.7959682E-2,9.667347E-3,-1.8439934E-2,3.5267476E-2,-2.1234138E-2,4.3241456E-2],"categories":[],"categories_nodes":[],"categories_segments":[],"categories_sizes":[],"default_left":[1,1,0,1,0,1,0,0,1,1,1,0,0,1,0,0,0,0,0,0,0,0,0,0,0,0,0],"id":14,"left_children":[1,3,5,7,9,11,13,15,17,19,21,-1,-1,23,25,-1,-1,-1,-1,-1,-1,-1,-1,-1,-1,-1,-1],"loss_changes":[8.552173E2,5.3948334E2,1.6534161E2,3.6126205E2,3.7362103E2,5.59845E-1,1.4706445E2,2.902487E2,1.17326996E2,1.314906E2,2.5382947E2,0E0,0E0,4.24529E1,1.5182861E2,0E0,0E0,0E0,0E0,0E0,0E0,0E0,0E0,0E0,0E0,0E0,0E0],"parents":[2147483647,0,0,1,1,2,2,3,3,4,4,5,5,6,6,7,7,8,8,9,9,10,10,13,13,14,14],"right_children":[2,4,6,8,10,12,14,16,18,20,22,-1,-1,24,26,-1,-1,-1,-1,-1,-1,-1,-1,-1,-1,-1,-1],"split_conditions":[3.0030653E-1,1.2989928E-1,6.1406225E-1,1.2007192E-1,1.2602314E-1,6.062619E-2,1.4445083E-1,3.2603434E-1,7.116798E-2,1.1385852E-1,4.3097943E-2,-7.5600125E-2,-1.3445981E-1,1.35111E-1,6.0706347E-2,5.042098E-2,1.7521052E-3,7.139363E-2,-6.098736E-2,2.6593804E-2,1.1603903E-1,-1.7959682E-2,9.667347E-3,-1.8439934E-2,3.5267476E-2,-2.1234138E-2,4.3241456E-2],"split_indices":[65,258,19,135,241,192,207,326,192,239,196,0,0,166,211,0,0,0,0,0,0,0,0,0,0,0,0],"split_type":[0,0,0,0,0,0,0,0,0,0,0,0,0,0,0,0,0,0,0,0,0,0,0,0,0,0,0],"sum_hessian":[1.9735E4,1.7892E4,1.843E3,9.759E3,8.133E3,1.9E1,1.824E3,9.495E3,2.64E2,3.2E2,7.813E3,1E1,9E0,2.02E2,1.622E3,3.16E2,9.179E3,2.47E2,1.7E1,2.72E2,4.8E1,6.869E3,9.44E2,1.55E2,4.7E1,9.6E1,1.526E3],"tree_param":{"num_deleted":"0","num_feature":"350","num_nodes":"27","size_leaf_vector":"1"}},{"base_weights":[6.8215434E-3,-5.6580644E-2,7.038917E-1,8.972567E-2,-2.346676E-1,5.9206444E-1,1.5741318E0,9.913382E-1,5.2065443E-2,8.5210335E-1,-2.7888462E-1,4.884018E-1,1.3979257E0,1.7457017E0,-1.0592408E-1,-1.8756922E-2,5.625672E-2,4.2062617E-4,3.7013847E-2,1.0097657E-2,7.6131456E-2,-2.146006E-2,-3.5032667E-3,2.808257E-2,-3.3839114E-2,-1.8014831E-2,7.827636E-2,9.8982185E-2,3.8625356E-2,-3.69181E-2,2.1193122E-2],"categories":[],"categories_nodes":[],"categories_segments":[],"categories_sizes":[],"default_left":[1,1,1,0,0,1,1,0,1,1,1,1,0,1,0,0,0,0,0,0,0,0,0,0,0,0,0,0,0,0,0],"id":15,"left_children":[1,3,5,7,9,11,13,15,17,19,21,23,25,27,29,-1,-1,-1,-1,-1,-1,-1,-1,-1,-1,-1,-1,-1,-1,-1,-1],"loss_changes":[8.7570496E2,4.731266E2,1.5875195E2,3.378216E2,3.935113E2,1.2084039E2,5.490695E1,7.374603E1,2.8706552E2,1.3833177E2,2.4678308E2,1.1136191E2,5.008365E1,3.5798767E1,6.501242E0,0E0,0E0,0E0,0E0,0E0,0E0,0E0,0E0,0E0,0E0,0E0,0E0,0E0,0E0,0E0,0E0],"parents":[2147483647,0,0,1,1,2,2,3,3,4,4,5,5,6,6,7,7,8,8,9,9,10,10,11,11,12,12,13,13,14,14],"right_children":[2,4,6,8,10,12,14,16,18,20,22,24,26,28,30,-1,-1,-1,-1,-1,-1,-1,-1,-1,-1,-1,-1,-1,-1,-1,-1],"split_conditions":[3.5201487E-1,1.3101375E-1,5.244797E-1,3.3055267E-1,1.2602314E-1,2.860363E-1,2.026621E-1,1.5189804E-1,2.8483272E-1,4.623531E-2,3.3115283E-2,2.1155232E-1,9.3154274E-2,2.0637068E-1,1.1965229E-1,-1.8756922E-2,5.625672E-2,4.2062617E-4,3.7013847E-2,1.0097657E-2,7.6131456E-2,-2.146006E-2,-3.5032667E-3,2.808257E-2,-3.3839114E-2,-1.8014831E-2,7.827636E-2,9.8982185E-2,3.8625356E-2,-3.69181E-2,2.1193122E-2],"split_indices":[65,258,325,326,241,171,205,273,298,201,298,166,207,122,258,0,0,0,0,0,0,0,0,0,0,0,0,0,0,0,0],"split_type":[0,0,0,0,0,0,0,0,0,0,0,0,0,0,0,0,0,0,0,0,0,0,0,0,0,0,0,0,0,0,0],"sum_hessian":[1.9805E4,1.8154E4,1.651E3,9.965E3,8.189E3,1.465E3,1.86E2,3.98E2,9.567E3,3.19E2,7.87E3,1.3E3,1.65E2,1.69E2,1.7E1,3.5E1,3.63E2,8.998E3,5.69E2,1.63E2,1.56E2,4.574E3,3.296E3,1.224E3,7.6E1,1.4E1,1.51E2,1.35E2,3.4E1,8E0,9E0],"tree_param":{"num_deleted":"0","num_feature":"350","num_nodes":"31","size_leaf_vector":"1"}},{"base_weights":[1.40050175E-2,5.0151993E-2,-7.4196756E-1,5.7788616E-1,3.8748176E-3,-6.7956346E-1,-2.7919374E0,1.0401832E0,1.6439457E-1,4.358407E-2,-4.8942342E-1,-2.7173214E0,-6.3538706E-1,-3.5565944E0,-8.968524E-1,3.9684866E-2,8.995604E-2,1.031063E-1,-2.695279E-3,1.231282E-3,4.7855392E-2,4.7228E-2,-3.0436505E-2,-1.4193825E-1,-3.8195134E-3,1.3166517E-2,-3.7091903E-2,-8.4063224E-2,-2.1562436E-1,7.6479437E-3,-6.4503916E-2],"categories":[],"categories_nodes":[],"categories_segments":[],"categories_sizes":[],"default_left":[1,0,1,1,1,0,1,1,0,1,0,1,0,0,0,0,0,0,0,0,0,0,0,0,0,0,0,0,0,0,0],"id":16,"left_children":[1,3,5,7,9,11,13,15,17,19,21,23,25,27,29,-1,-1,-1,-1,-1,-1,-1,-1,-1,-1,-1,-1,-1,-1,-1,-1],"loss_changes":[5.3837115E2,4.5920767E2,1.1137283E2,2.890191E2,3.386796E2,7.527533E1,3.2259888E1,1.3102881E2,3.333639E2,2.7681433E2,2.20763E2,4.0986176E0,8.242325E1,1.5268555E1,4.481206E0,0E0,0E0,0E0,0E0,0E0,0E0,0E0,0E0,0E0,0E0,0E0,0E0,0E0,0E0,0E0,0E0],"parents":[2147483647,0,0,1,1,2,2,3,3,4,4,5,5,6,6,7,7,8,8,9,9,10,10,11,11,12,12,13,13,14,14],"right_children":[2,4,6,8,10,12,14,16,18,20,22,24,26,28,30,-1,-1,-1,-1,-1,-1,-1,-1,-1,-1,-1,-1,-1,-1,-1,-1],"split_conditions":[4.8332483E-1,2.713596E-1,7.5883746E-1,4.567436E-2,1.9375014E-1,1.2442378E-1,1.6651812E-1,3.5990503E-2,6.295986E-2,1.6710359E-1,8.0998725E-1,5.151752E-1,1.0750366E-1,1.5360914E-1,9.307413E-2,3.9684866E-2,8.995604E-2,1.031063E-1,-2.695279E-3,1.231282E-3,4.7855392E-2,4.7228E-2,-3.0436505E-2,-1.4193825E-1,-3.8195134E-3,1.3166517E-2,-3.7091903E-2,-8.4063224E-2,-2.1562436E-1,7.6479437E-3,-6.4503916E-2],"split_indices":[329,239,29,109,166,176,163,225,241,242,340,80,246,108,131,0,0,0,0,0,0,0,0,0,0,0,0,0,0,0,0],"split_type":[0,0,0,0,0,0,0,0,0,0,0,0,0,0,0,0,0,0,0,0,0,0,0,0,0,0,0,0,0,0,0],"sum_hessian":[1.9712E4,1.8814E4,8.98E2,1.515E3,1.7299E4,8.73E2,2.5E1,7.14E2,8.01E2,1.6012E4,1.287E3,1.7E1,8.56E2,1.7E1,8E0,5.41E2,1.73E2,8.2E1,7.19E2,1.5688E4,3.24E2,9.8E1,1.189E3,1.6E1,1E0,9E1,7.66E2,6E0,1.1E1,2E0,6E0],"tree_param":{"num_deleted":"0","num_feature":"350","num_nodes":"31","size_leaf_vector":"1"}},{"base_weights":[-8.97314E-3,-7.645482E-2,5.011345E-1,-1.16777174E-1,5.581661E-1,5.864217E-1,-7.9620075E-1,-3.2294053E-1,8.454885E-3,4.985302E-1,1.519331E-1,6.793593E-1,-4.8880664E-1,-1.4081355E0,7.33398E-1,5.336212E-2,-1.774627E-2,5.9903534E-3,-1.8471513E-2,6.575046E-2,1.6087517E-2,5.4691922E-2,2.316548E-2,-7.3378205E-2,2.3651247E-4,-1.6224113E-1,-5.6081742E-2,-5.4043205E-4,7.701778E-2],"categories":[],"categories_nodes":[],"categories_segments":[],"categories_sizes":[],"default_left":[1,1,1,1,1,1,1,0,1,0,0,1,0,0,0,0,0,0,0,0,0,0,0,0,0,0,0,0,0],"id":17,"left_children":[1,3,5,7,9,11,13,15,17,19,-1,21,23,25,27,-1,-1,-1,-1,-1,-1,-1,-1,-1,-1,-1,-1,-1,-1],"loss_changes":[6.779919E2,4.4512582E2,2.5495886E2,4.226242E2,1.5041226E2,2.1627429E2,1.342842E2,2.7503748E2,4.2823477E2,1.4540494E2,0E0,1.7682574E2,8.3823456E1,4.785089E1,2.5403688E1,0E0,0E0,0E0,0E0,0E0,0E0,0E0,0E0,0E0,0E0,0E0,0E0,0E0,0E0],"parents":[2147483647,0,0,1,1,2,2,3,3,4,4,5,5,6,6,7,7,8,8,9,9,11,11,12,12,13,13,14,14],"right_children":[2,4,6,8,10,12,14,16,18,20,-1,22,24,26,28,-1,-1,-1,-1,-1,-1,-1,-1,-1,-1,-1,-1,-1,-1],"split_conditions":[5.3422045E-2,3.660427E-1,7.752606E-2,1.3422561E-2,2.9201838E-1,1.3938797E-1,1.2272034E-1,2.2086531E-1,5.5937544E-2,6.760272E-1,1.519331E-1,4.812958E-2,1.1077779E-1,6.0390107E-2,2.0429084E-1,5.336212E-2,-1.774627E-2,5.9903534E-3,-1.8471513E-2,6.575046E-2,1.6087517E-2,5.4691922E-2,2.316548E-2,-7.3378205E-2,2.3651247E-4,-1.6224113E-1,-5.6081742E-2,-5.4043205E-4,7.701778E-2],"split_indices":[102,88,183,164,153,113,196,249,205,30,0,268,268,205,223,0,0,0,0,0,0,0,0,0,0,0,0,0,0],"split_type":[0,0,0,0,0,0,0,0,0,0,0,0,0,0,0,0,0,0,0,0,0,0,0,0,0,0,0,0,0],"sum_hessian":[1.97E4,1.74E4,2.3E3,1.6362E4,1.038E3,2.159E3,1.41E2,6.184E3,1.0178E4,1.015E3,2.3E1,1.988E3,1.71E2,1.01E2,4E1,1.38E2,6.046E3,7.863E3,2.315E3,1.79E2,8.36E2,6.79E2,1.309E3,5.7E1,1.14E2,1.2E1,8.9E1,2.1E1,1.9E1],"tree_param":{"num_deleted":"0","num_feature":"350","num_nodes":"29","size_leaf_vector":"1"}},{"base_weights":[3.5970865E-4,-5.9972975E-2,4.55763E-1,-9.856156E-2,5.558948E-1,3.54444E-1,1.5076675E0,1.6715538E-2,-2.8790012E-1,-1.8366483E-1,7.6085204E-1,2.1218093E-1,1.2376374E0,-6.3935983E-1,1.624816E0,2.5081134E-3,-5.2099552E-2,5.5567335E-2,-1.5933624E-2,3.5057023E-2,-2.6485423E-2,9.508042E-3,5.047142E-2,1.6167445E-2,-3.4763448E-2,-2.5284428E-2,7.390165E-2,4.3299627E-2,-6.87308E-2,8.9952484E-2,1.8100182E-2],"categories":[],"categories_nodes":[],"categories_segments":[],"categories_sizes":[],"default_left":[1,1,1,0,1,1,0,1,0,0,0,1,0,0,1,0,0,0,0,0,0,0,0,0,0,0,0,0,0,0,0],"id":18,"left_children":[1,3,5,7,9,11,13,15,17,19,21,23,25,27,29,-1,-1,-1,-1,-1,-1,-1,-1,-1,-1,-1,-1,-1,-1,-1,-1],"loss_changes":[5.4462885E2,4.156268E2,2.4568878E2,3.5953394E2,1.5670535E2,2.650047E2,5.259027E1,3.619451E2,2.6833887E2,6.887028E1,1.1383139E2,1.8414372E2,1.2402634E2,1.3619735E1,4.073297E1,0E0,0E0,0E0,0E0,0E0,0E0,0E0,0E0,0E0,0E0,0E0,0E0,0E0,0E0,0E0,0E0],"parents":[2147483647,0,0,1,1,2,2,3,3,4,4,5,5,6,6,7,7,8,8,9,9,10,10,11,11,12,12,13,13,14,14],"right_children":[2,4,6,8,10,12,14,16,18,20,22,24,26,28,30,-1,-1,-1,-1,-1,-1,-1,-1,-1,-1,-1,-1,-1,-1,-1,-1],"split_conditions":[5.3422045E-2,3.660427E-1,2.5788555E-1,2.00001E0,3.2953884E-2,6.468329E-2,2.4633585E-1,7.5483896E-2,4.6711028E-2,3.0236983E-1,3.3316353E-1,1.2020319E-1,8.112321E-2,9.972521E-2,1.2500647E-1,2.5081134E-3,-5.2099552E-2,5.5567335E-2,-1.5933624E-2,3.5057023E-2,-2.6485423E-2,9.508042E-3,5.047142E-2,1.6167445E-2,-3.4763448E-2,-2.5284428E-2,7.390165E-2,4.3299627E-2,-6.87308E-2,8.9952484E-2,1.8100182E-2],"split_indices":[102,88,249,164,163,128,208,198,189,185,221,113,166,102,228,0,0,0,0,0,0,0,0,0,0,0,0,0,0,0,0],"split_type":[0,0,0,0,0,0,0,0,0,0,0,0,0,0,0,0,0,0,0,0,0,0,0,0,0,0,0,0,0,0,0],"sum_hessian":[1.9813E4,1.7495E4,2.318E3,1.6465E4,1.03E3,2.116E3,2.02E2,1.0233E4,6.232E3,2.23E2,8.07E2,1.824E3,2.92E2,1E1,1.92E2,9.921E3,3.12E2,1.33E2,6.099E3,6.2E1,1.61E2,2.46E2,5.61E2,1.626E3,1.98E2,3.5E1,2.57E2,3E0,7E0,1.68E2,2.4E1],"tree_param":{"num_deleted":"0","num_feature":"350","num_nodes":"31","size_leaf_vector":"1"}},{"base_weights":[8.2421576E-4,-5.5901762E-2,5.43993E-1,8.1657656E-2,-2.245413E-1,4.6572405E-1,1.4313858E0,8.0133986E-1,4.751511E-2,7.646316E-1,-2.66259E-1,1.7496576E0,4.0231097E-1,1.6185745E0,-6.273402E-1,-3.5545079E-3,5.234319E-2,4.6156268E-3,-2.0846328E-2,-9.457513E-3,5.7871725E-2,-5.4497506E-2,-1.152538E-2,-1.1980171E-2,1.00611724E-1,2.4102945E-2,-3.2090973E-2,7.1469285E-2,1.4258303E-1,-4.313723E-2,-0E0],"categories":[],"categories_nodes":[],"categories_segments":[],"categories_sizes":[],"default_left":[1,1,1,0,0,0,0,0,1,0,0,1,1,1,0,0,0,0,0,0,0,0,0,0,0,0,0,0,0,0,0],"id":19,"left_children":[1,3,5,7,9,11,13,15,17,19,21,23,25,27,29,-1,-1,-1,-1,-1,-1,-1,-1,-1,-1,-1,-1,-1,-1,-1,-1],"loss_changes":[6.0702E2,4.137094E2,1.2777997E2,2.4080785E2,3.3057788E2,1.3777084E2,5.931653E1,9.566818E1,1.9495128E2,1.2208908E2,2.2551514E2,4.3155167E1,1.363714E2,2.5976837E1,1.5827298E0,0E0,0E0,0E0,0E0,0E0,0E0,0E0,0E0,0E0,0E0,0E0,0E0,0E0,0E0,0E0,0E0],"parents":[2147483647,0,0,1,1,2,2,3,3,4,4,5,5,6,6,7,7,8,8,9,9,10,10,11,11,12,12,13,13,14,14],"right_children":[2,4,6,8,10,12,14,16,18,20,22,24,26,28,30,-1,-1,-1,-1,-1,-1,-1,-1,-1,-1,-1,-1,-1,-1,-1,-1],"split_conditions":[2.8806454E-1,1.2989928E-1,6.1172366E-1,4.134521E-1,1.2602314E-1,6.9614805E-2,3.3174643E-1,1.1984732E-1,6.623502E-2,4.07641E-2,1.10630676E-1,2.4519498E-2,3.366479E-2,8.643555E-2,4.3087888E-1,-3.5545079E-3,5.234319E-2,4.6156268E-3,-2.0846328E-2,-9.457513E-3,5.7871725E-2,-5.4497506E-2,-1.152538E-2,-1.1980171E-2,1.00611724E-1,2.4102945E-2,-3.2090973E-2,7.1469285E-2,1.4258303E-1,-4.313723E-2,-0E0],"split_indices":[65,258,325,326,241,180,223,170,237,167,177,163,220,111,65,0,0,0,0,0,0,0,0,0,0,0,0,0,0,0,0],"split_type":[0,0,0,0,0,0,0,0,0,0,0,0,0,0,0,0,0,0,0,0,0,0,0,0,0,0,0,0,0,0,0],"sum_hessian":[1.9691E4,1.7829E4,1.862E3,9.818E3,8.011E3,1.713E3,1.49E2,4.43E2,9.375E3,3.23E2,7.688E3,7.9E1,1.634E3,1.37E2,1.2E1,9.7E1,3.46E2,8.552E3,8.23E2,9.4E1,2.29E2,3.18E2,7.37E3,9E0,7E1,1.519E3,1.15E2,1.21E2,1.6E1,8E0,4E0],"tree_param":{"num_deleted":"0","num_feature":"350","num_nodes":"31","size_leaf_vector":"1"}},{"base_weights":[9.713863E-3,-4.386499E-2,5.944102E-1,-7.123801E-2,7.477362E-1,5.2618235E-1,1.7386788E0,-1.2766558E-1,3.7633952E-1,-1.1241596E-1,7.876701E-1,7.072973E-1,9.484481E-2,2.3289735E0,1.1862519E0,-4.09545E-3,-3.0914087E-2,2.5241906E-2,-2.1089878E-2,4.116893E-2,-7.8465536E-2,3.9416168E-2,-4.63279E-2,-4.29739E-3,7.2332546E-2,-0E0,1.2568025E-1,8.431085E-2,3.9003387E-2],"categories":[],"categories_nodes":[],"categories_segments":[],"categories_sizes":[],"default_left":[1,1,1,1,0,1,1,1,1,0,1,1,1,0,0,0,0,0,0,0,0,0,0,0,0,0,0,0,0],"id":20,"left_children":[1,3,5,7,9,11,13,15,17,-1,19,21,23,25,27,-1,-1,-1,-1,-1,-1,-1,-1,-1,-1,-1,-1,-1,-1],"loss_changes":[6.1575867E2,3.8968335E2,1.26769714E2,4.3929724E2,7.2946655E1,1.2132358E2,2.5480347E1,3.4645743E2,1.999378E2,0E0,5.091266E1,1.4588733E2,1.1396029E2,1.9491348E1,7.6053925E0,0E0,0E0,0E0,0E0,0E0,0E0,0E0,0E0,0E0,0E0,0E0,0E0,0E0,0E0],"parents":[2147483647,0,0,1,1,2,2,3,3,4,4,5,5,6,6,7,7,8,8,10,10,11,11,12,12,13,13,14,14],"right_children":[2,4,6,8,10,12,14,16,18,-1,20,22,24,26,28,-1,-1,-1,-1,-1,-1,-1,-1,-1,-1,-1,-1,-1,-1],"split_conditions":[3.5201487E-1,2.9885027E-1,1.6634262E-1,5.3652145E-2,3.613223E-1,2.5000706E-2,9.369924E-2,1.3005257E-1,5.1302955E-2,-1.1241596E-1,7.0470756E-1,2.1155232E-1,1.5462333E-1,6.1916834E-1,1.2469196E-1,-4.09545E-3,-3.0914087E-2,2.5241906E-2,-2.1089878E-2,4.116893E-2,-7.8465536E-2,3.9416168E-2,-4.63279E-2,-4.29739E-3,7.2332546E-2,-0E0,1.2568025E-1,8.431085E-2,3.9003387E-2],"split_indices":[65,298,131,102,40,205,166,205,219,0,102,166,217,9,106,0,0,0,0,0,0,0,0,0,0,0,0,0,0],"split_type":[0,0,0,0,0,0,0,0,0,0,0,0,0,0,0,0,0,0,0,0,0,0,0,0,0,0,0,0,0],"sum_hessian":[1.9645E4,1.7996E4,1.649E3,1.7396E4,6E2,1.558E3,9.1E1,1.545E4,1.946E3,7E0,5.93E2,1.096E3,4.62E2,4.2E1,4.9E1,1.4134E4,1.316E3,1.677E3,2.69E2,5.85E2,8E0,1.045E3,5.1E1,4.08E2,5.4E1,3E0,3.9E1,2E1,2.9E1],"tree_param":{"num_deleted":"0","num_feature":"350","num_nodes":"29","size_leaf_vector":"1"}},{"base_weights":[-1.477517E-4,-5.5774033E-2,5.233336E-1,7.789347E-2,-2.194512E-1,5.3087194E-2,6.7012614E-1,7.541132E-1,3.9887182E-2,-6.520904E-2,-4.2471835E-1,7.6308215E-1,-4.6749565E-1,7.4542385E-1,-7.045689E-1,-1.6867895E-2,4.5033608E-2,-4.3145363E-5,3.2674078E-2,-5.7976875E-3,5.652052E-2,-1.922721E-2,-8.990439E-2,9.5080204E-2,1.442407E-2,2.0661026E-2,-3.703401E-2,3.8802207E-2,-1.0164421E-1,-7.098706E-2,2.3077874E-2],"categories":[],"categories_nodes":[],"categories_segments":[],"categories_sizes":[],"default_left":[1,1,0,0,0,1,1,0,1,1,1,0,0,1,1,0,0,0,0,0,0,0,0,0,0,0,0,0,0,0,0],"id":21,"left_children":[1,3,5,7,9,11,13,15,17,19,21,23,25,27,29,-1,-1,-1,-1,-1,-1,-1,-1,-1,-1,-1,-1,-1,-1,-1,-1],"loss_changes":[5.735917E2,3.8982825E2,1.3020502E2,2.5156732E2,2.5333072E2,1.6756877E2,1.4970569E2,8.3927185E1,2.3248923E2,2.7725598E2,1.877398E2,1.0210232E2,6.3265884E1,1.17243164E2,6.3682976E1,0E0,0E0,0E0,0E0,0E0,0E0,0E0,0E0,0E0,0E0,0E0,0E0,0E0,0E0,0E0,0E0],"parents":[2147483647,0,0,1,1,2,2,3,3,4,4,5,5,6,6,7,7,8,8,9,9,10,10,11,11,12,12,13,13,14,14],"right_children":[2,4,6,8,10,12,14,16,18,20,22,24,26,28,30,-1,-1,-1,-1,-1,-1,-1,-1,-1,-1,-1,-1,-1,-1,-1,-1],"split_conditions":[2.8806454E-1,1.2989928E-1,4.9882483E-1,4.6803412E-1,2.7752876E-1,3.6959678E-2,2.145443E-1,1.685896E-1,2.8483272E-1,1.1204412E-1,3.950995E-1,1.2967423E-1,4.33241E-2,5.020327E-1,4.5608163E-2,-1.6867895E-2,4.5033608E-2,-4.3145363E-5,3.2674078E-2,-5.7976875E-3,5.652052E-2,-1.922721E-2,-8.990439E-2,9.5080204E-2,1.442407E-2,2.0661026E-2,-3.703401E-2,3.8802207E-2,-1.0164421E-1,-7.098706E-2,2.3077874E-2],"split_indices":[65,258,207,326,294,268,166,273,298,127,223,147,272,160,298,0,0,0,0,0,0,0,0,0,0,0,0,0,0,0,0],"split_type":[0,0,0,0,0,0,0,0,0,0,0,0,0,0,0,0,0,0,0,0,0,0,0,0,0,0,0,0,0,0,0],"sum_hessian":[1.9704E4,1.7813E4,1.891E3,9.804E3,8.009E3,4.51E2,1.44E3,5.2E2,9.284E3,4.575E3,3.434E3,1.91E2,2.6E2,1.366E3,7.4E1,6.1E1,4.59E2,8.706E3,5.78E2,4.39E3,1.85E2,3.338E3,9.6E1,5.5E1,1.36E2,6.1E1,1.99E2,1.352E3,1.4E1,4.6E1,2.8E1],"tree_param":{"num_deleted":"0","num_feature":"350","num_nodes":"31","size_leaf_vector":"1"}},{"base_weights":[1.0666312E-2,-4.375652E-2,4.229409E-1,6.7862324E-2,-2.2508818E-1,2.9521143E-1,1.1780739E0,-3.1222498E-1,1.4977138E-1,1.7736194E-1,-3.6569902E-1,4.315147E-1,-5.0384766E-1,2.2787137E0,8.73404E-1,-1.1378202E-2,-7.429207E-2,1.3499382E-2,-7.6855384E-3,-2.9677054E-2,1.4502688E-2,-5.3373235E-3,-2.8644273E-2,7.2708815E-2,1.669464E-2,3.6900144E-2,-4.1189183E-2,1.3573672E-1,7.2454885E-2,3.6933E-2,1.5048058E-1],"categories":[],"categories_nodes":[],"categories_segments":[],"categories_sizes":[],"default_left":[1,0,1,0,0,1,0,1,1,0,0,0,0,0,1,0,0,0,0,0,0,0,0,0,0,0,0,0,0,0,0],"id":22,"left_children":[1,3,5,7,9,11,13,15,17,19,21,23,25,27,29,-1,-1,-1,-1,-1,-1,-1,-1,-1,-1,-1,-1,-1,-1,-1,-1],"loss_changes":[4.4271356E2,3.527157E2,2.2085336E2,3.3566824E2,3.75909E2,2.147426E2,1.07763794E2,1.8868112E2,3.2381763E2,1.4935759E2,2.6367145E2,1.6674115E2,1.1467957E2,1.9666992E1,7.13172E1,0E0,0E0,0E0,0E0,0E0,0E0,0E0,0E0,0E0,0E0,0E0,0E0,0E0,0E0,0E0,0E0],"parents":[2147483647,0,0,1,1,2,2,3,3,4,4,5,5,6,6,7,7,8,8,9,9,10,10,11,11,12,12,13,13,14,14],"right_children":[2,4,6,8,10,12,14,16,18,20,22,24,26,28,30,-1,-1,-1,-1,-1,-1,-1,-1,-1,-1,-1,-1,-1,-1,-1,-1],"split_conditions":[5.3422045E-2,6.8036205E-1,2.2408329E-1,4.867214E-1,2.0146652E-1,9.010263E-2,5.1193005E-1,5.3484324E-2,1.4103817E-2,1.6322485E-1,3.2968605E-1,4.2169967E-1,2.357582E-1,3.88289E-1,1.9791676E-1,-1.1378202E-2,-7.429207E-2,1.3499382E-2,-7.6855384E-3,-2.9677054E-2,1.4502688E-2,-5.3373235E-3,-2.8644273E-2,7.2708815E-2,1.669464E-2,3.6900144E-2,-4.1189183E-2,1.3573672E-1,7.2454885E-2,3.6933E-2,1.5048058E-1],"split_indices":[102,164,122,207,298,147,128,177,203,207,163,254,261,122,145,0,0,0,0,0,0,0,0,0,0,0,0,0,0,0,0],"split_type":[0,0,0,0,0,0,0,0,0,0,0,0,0,0,0,0,0,0,0,0,0,0,0,0,0,0,0,0,0,0,0],"sum_hessian":[1.9721E4,1.7421E4,2.3E3,1.0782E4,6.639E3,1.969E3,3.31E2,1.91E3,8.872E3,1.718E3,4.921E3,1.683E3,2.86E2,7E1,2.61E2,1.783E3,1.27E2,6.356E3,2.516E3,2.18E2,1.5E3,2.189E3,2.732E3,1.45E2,1.538E3,5.8E1,2.28E2,4.4E1,2.6E1,2.47E2,1.4E1],"tree_param":{"num_deleted":"0","num_feature":"350","num_nodes":"31","size_leaf_vector":"1"}},{"base_weights":[4.37587E-3,-5.486835E-1,4.8471805E-2,-6.368633E-2,-8.745117E-1,1.3527436E-2,6.147639E-1,-2.1287012E0,2.67537E-2,-1.8790103E0,-7.491189E-1,5.19079E-1,-2.0087874E-2,4.7151324E-1,1.9460472E0,-4.712165E-2,-1.5563808E-1,-6.570698E-3,6.277877E-2,-1.0912424E-1,-3.3371754E-2,-3.1428434E-2,-9.594277E-2,8.008922E-2,1.5866436E-2,4.3902252E-2,-2.0275405E-3,2.6885567E-2,-8.331941E-2,1.1057546E-1,2.2181006E-2],"categories":[],"categories_nodes":[],"categories_segments":[],"categories_sizes":[],"default_left":[0,0,1,0,0,0,1,0,1,1,1,0,0,1,1,0,0,0,0,0,0,0,0,0,0,0,0,0,0,0,0],"id":23,"left_children":[1,3,5,7,9,11,13,15,17,19,21,23,25,27,29,-1,-1,-1,-1,-1,-1,-1,-1,-1,-1,-1,-1,-1,-1,-1,-1],"loss_changes":[4.8353036E2,2.3082492E2,3.6325568E2,1.11296326E2,1.074906E2,2.9437982E2,2.013583E2,2.4222816E1,1.1073476E2,3.2415863E1,1.0750952E2,2.3444318E2,2.9786212E2,1.3690332E2,3.8771637E1,0E0,0E0,0E0,0E0,0E0,0E0,0E0,0E0,0E0,0E0,0E0,0E0,0E0,0E0,0E0,0E0],"parents":[2147483647,0,0,1,1,2,2,3,3,4,4,5,5,6,6,7,7,8,8,9,9,10,10,11,11,12,12,13,13,14,14],"right_children":[2,4,6,8,10,12,14,16,18,20,22,24,26,28,30,-1,-1,-1,-1,-1,-1,-1,-1,-1,-1,-1,-1,-1,-1,-1,-1],"split_conditions":[2.00001E0,1.6525103E-1,1.4569123E-1,2.9175112E-1,1.4318043E-1,1E0,2.0289281E-1,7.81233E-2,1.0101523E-1,9.263266E-2,1.691961E-1,1.875328E-1,1.2480694E-1,4.3612186E-2,4.0369097E-2,-4.712165E-2,-1.5563808E-1,-6.570698E-3,6.277877E-2,-1.0912424E-1,-3.3371754E-2,-3.1428434E-2,-9.594277E-2,8.008922E-2,1.5866436E-2,4.3902252E-2,-2.0275405E-3,2.6885567E-2,-8.331941E-2,1.1057546E-1,2.2181006E-2],"split_indices":[329,298,249,334,156,325,295,295,196,111,205,179,254,230,287,0,0,0,0,0,0,0,0,0,0,0,0,0,0,0,0],"split_type":[0,0,0,0,0,0,0,0,0,0,0,0,0,0,0,0,0,0,0,0,0,0,0,0,0,0,0,0,0,0,0],"sum_hessian":[1.9835E4,1.463E3,1.8372E4,5.89E2,8.74E2,1.7306E4,1.066E3,2.4E1,5.65E2,9.5E1,7.79E2,1.079E3,1.6227E4,9.64E2,1.02E2,1.2E1,1.2E1,5.01E2,6.4E1,7.5E1,2E1,7.08E2,7.1E1,1.68E2,9.11E2,3.6E2,1.5867E4,9.36E2,2.8E1,8.6E1,1.6E1],"tree_param":{"num_deleted":"0","num_feature":"350","num_nodes":"31","size_leaf_vector":"1"}},{"base_weights":[3.3232477E-3,-3.3931736E-2,5.5737776E-1,-5.999653E-2,6.7678636E-1,6.162836E-1,-2.32659E0,-8.538599E-2,6.4488494E-1,8.009167E-1,-5.591879E-1,1.4097304E0,4.0736422E-1,-3.6730547E-2,-1.4385517E-1,1.4382558E-2,-6.4977864E-3,5.5096906E-2,1.8874574E-2,8.928557E-2,3.241073E-2,-8.1479006E-2,4.4200063E-2,7.891477E-2,1.8247496E-2,-1.3958308E-2,3.1211993E-2],"categories":[],"categories_nodes":[],"categories_segments":[],"categories_sizes":[],"default_left":[1,1,1,1,1,0,0,0,0,0,1,1,0,0,0,0,0,0,0,0,0,0,0,0,0,0,0],"id":24,"left_children":[1,3,5,7,9,11,13,15,17,19,21,23,25,-1,-1,-1,-1,-1,-1,-1,-1,-1,-1,-1,-1,-1,-1],"loss_changes":[4.0852414E2,3.4303235E2,2.1242215E2,3.1973007E2,1.0106006E2,2.0124948E2,1.7990753E1,2.8689282E2,7.473859E1,8.725214E1,9.450004E1,4.318521E1,1.4477176E2,0E0,0E0,0E0,0E0,0E0,0E0,0E0,0E0,0E0,0E0,0E0,0E0,0E0,0E0],"parents":[2147483647,0,0,1,1,2,2,3,3,4,4,5,5,6,6,7,7,8,8,9,9,10,10,11,11,12,12],"right_children":[2,4,6,8,10,12,14,16,18,20,22,24,26,-1,-1,-1,-1,-1,-1,-1,-1,-1,-1,-1,-1,-1,-1],"split_conditions":[2.1237686E-2,4.71849E-1,1.4822392E-1,2.9885027E-1,9.3314305E-2,2.4653248E-1,5.9905916E-1,4.8865297E-1,2.8167295E-1,1.4113443E-1,8.257609E-2,4.5754498E-1,1.7364635E-1,-3.6730547E-2,-1.4385517E-1,1.4382558E-2,-6.4977864E-3,5.5096906E-2,1.8874574E-2,8.928557E-2,3.241073E-2,-8.1479006E-2,4.4200063E-2,7.891477E-2,1.8247496E-2,-1.3958308E-2,3.1211993E-2],"split_indices":[249,86,177,298,147,135,66,311,180,187,225,348,211,0,0,0,0,0,0,0,0,0,0,0,0,0,0],"split_type":[0,0,0,0,0,0,0,0,0,0,0,0,0,0,0,0,0,0,0,0,0,0,0,0,0,0,0],"sum_hessian":[1.9777E4,1.8531E4,1.246E3,1.7877E4,6.54E2,1.222E3,2.4E1,1.7257E4,6.2E2,5.95E2,5.9E1,2.53E2,9.69E2,7E0,1.7E1,1.84E3,1.5417E4,2.27E2,3.93E2,7.8E1,5.17E2,3.4E1,2.5E1,2.17E2,3.6E1,2.32E2,7.37E2],"tree_param":{"num_deleted":"0","num_feature":"350","num_nodes":"27","size_leaf_vector":"1"}},{"base_weights":[-6.8994695E-3,-5.8757063E-2,3.8778794E-1,-2.2443792E-2,-5.789467E-1,2.6242405E-1,1.1747841E0,1.6373968E-2,-5.329244E-1,-6.704332E-1,1.588614E0,1.2971671E0,1.7378402E-1,3.3758416E0,1.0431585E0,-9.099491E-4,2.6214017E-2,1.6289448E-2,-3.7542045E-2,-2.2082549E-2,-8.916424E-2,-4.5266487E-2,1.0361395E-1,8.903321E-2,3.465101E-2,9.9822385E-3,-1.6968893E-1,-0E0,1.8989716E-1,4.1809335E-2,1.05782166E-1],"categories":[],"categories_nodes":[],"categories_segments":[],"categories_sizes":[],"default_left":[1,1,1,1,1,0,0,1,0,1,0,1,1,0,1,0,0,0,0,0,0,0,0,0,0,0,0,0,0,0,0],"id":25,"left_children":[1,3,5,7,9,11,13,15,17,19,21,23,25,27,29,-1,-1,-1,-1,-1,-1,-1,-1,-1,-1,-1,-1,-1,-1,-1,-1],"loss_changes":[4.0257758E2,3.282364E2,2.2431454E2,3.2247055E2,2.2548117E2,1.7991023E2,8.494986E1,2.6560904E2,2.1565405E2,2.753601E2,5.7946304E1,4.2805145E1,1.668089E2,2.2628372E1,6.2681335E1,0E0,0E0,0E0,0E0,0E0,0E0,0E0,0E0,0E0,0E0,0E0,0E0,0E0,0E0,0E0,0E0],"parents":[2147483647,0,0,1,1,2,2,3,3,4,4,5,5,6,6,7,7,8,8,9,9,10,10,11,11,12,12,13,13,14,14],"right_children":[2,4,6,8,10,12,14,16,18,20,22,24,26,28,30,-1,-1,-1,-1,-1,-1,-1,-1,-1,-1,-1,-1,-1,-1,-1,-1],"split_conditions":[5.3422045E-2,1.0850489E-1,2.2408329E-1,2.0026162E-1,1.7853607E-1,4.2169967E-1,3.253544E-1,3.660427E-1,1.5360914E-1,1.3005257E-1,8.523078E-1,1.2154649E-1,3.8933E-1,6.969718E-1,1.13692895E-1,-9.099491E-4,2.6214017E-2,1.6289448E-2,-3.7542045E-2,-2.2082549E-2,-8.916424E-2,-4.5266487E-2,1.0361395E-1,8.903321E-2,3.465101E-2,9.9822385E-3,-1.6968893E-1,-0E0,1.8989716E-1,4.1809335E-2,1.05782166E-1],"split_indices":[102,202,122,166,270,254,150,88,108,205,73,239,166,58,128,0,0,0,0,0,0,0,0,0,0,0,0,0,0,0,0],"split_type":[0,0,0,0,0,0,0,0,0,0,0,0,0,0,0,0,0,0,0,0,0,0,0,0,0,0,0,0,0,0,0],"sum_hessian":[1.9675E4,1.7392E4,2.283E3,1.6259E4,1.133E3,1.971E3,3.12E2,1.511E4,1.149E3,1.088E3,4.5E1,1.54E2,1.817E3,1.6E1,2.96E2,1.4147E4,9.63E2,2.32E2,9.17E2,9.04E2,1.84E2,7E0,3.8E1,8.4E1,7E1,1.805E3,1.2E1,2E0,1.4E1,2.5E2,4.6E1],"tree_param":{"num_deleted":"0","num_feature":"350","num_nodes":"31","size_leaf_vector":"1"}},{"base_weights":[-1.8159773E-3,-5.094687E-2,3.662809E-1,-1.3214034E-1,1.5023056E-1,3.883463E-1,-3.253926E0,-1.5420584E-1,7.700268E-1,2.4044049E-1,-6.0857505E-1,4.617327E-1,-7.366404E-1,-0E0,-1.7610796E-1,-8.705364E-3,4.4401623E-2,7.828585E-2,1.177059E-2,1.2463252E-2,-2.0489483E-1,-3.7251975E-2,5.3462055E-2,5.673783E-2,1.8922951E-2,-5.9877288E-2,3.9645754E-2],"categories":[],"categories_nodes":[],"categories_segments":[],"categories_sizes":[],"default_left":[1,1,1,1,1,1,0,1,0,1,1,0,1,0,0,0,0,0,0,0,0,0,0,0,0,0,0],"id":26,"left_children":[1,3,5,7,9,11,13,15,17,19,21,23,25,-1,-1,-1,-1,-1,-1,-1,-1,-1,-1,-1,-1,-1,-1],"loss_changes":[3.5571814E2,2.836068E2,1.8483594E2,2.4609744E2,3.416052E2,1.9033542E2,1.304039E1,2.5031992E2,1.2422029E2,1.6992001E2,1.2198454E2,1.2003964E2,1.00554115E2,0E0,0E0,0E0,0E0,0E0,0E0,0E0,0E0,0E0,0E0,0E0,0E0,0E0,0E0],"parents":[2147483647,0,0,1,1,2,2,3,3,4,4,5,5,6,6,7,7,8,8,9,9,10,10,11,11,12,12],"right_children":[2,4,6,8,10,12,14,16,18,20,22,24,26,-1,-1,-1,-1,-1,-1,-1,-1,-1,-1,-1,-1,-1,-1],"split_conditions":[5.3422045E-2,1.7563854E-1,3.8933E-1,1.2247509E-1,1.2526947E-1,7.954364E-2,5.977969E-1,4.77964E-1,2.8638387E-1,9.357935E-1,3.717544E-1,2.2718625E-1,8.104355E-2,-0E0,-1.7610796E-1,-8.705364E-3,4.4401623E-2,7.828585E-2,1.177059E-2,1.2463252E-2,-2.0489483E-1,-3.7251975E-2,5.3462055E-2,5.673783E-2,1.8922951E-2,-5.9877288E-2,3.9645754E-2],"split_indices":[102,164,166,239,203,183,2,2,230,336,163,135,278,0,0,0,0,0,0,0,0,0,0,0,0,0,0],"split_type":[0,0,0,0,0,0,0,0,0,0,0,0,0,0,0,0,0,0,0,0,0,0,0,0,0,0,0],"sum_hessian":[1.9676E4,1.7361E4,2.315E3,1.2371E4,4.99E3,2.302E3,1.3E1,1.2077E4,2.94E2,4.461E3,5.29E2,2.162E3,1.4E2,1E0,1.2E1,1.1852E4,2.25E2,1.17E2,1.77E2,4.453E3,8E0,4.9E2,3.9E1,2.36E2,1.926E3,1.08E2,3.2E1],"tree_param":{"num_deleted":"0","num_feature":"350","num_nodes":"27","size_leaf_vector":"1"}},{"base_weights":[1.1114017E-3,4.0794486E-1,-4.3319333E-2,3.3079728E-1,1.2863543E0,3.2708576E-1,-8.758496E-2,3.8867283E-1,-8.419238E-1,1.6440363E0,-3.896213E-1,1.2369168E0,2.624744E-1,-1.106917E-1,7.4394274E-1,2.7038071E-2,-2.0476388E-4,-1.3843483E-1,-2.0493677E-2,4.1019674E-2,1.1596934E-1,3.218643E-2,-8.349636E-2,9.4298445E-2,4.07616E-2,3.4493802E-3,2.3501081E-2,-6.732682E-3,3.521634E-2,7.470354E-2,2.3791749E-2],"categories":[],"categories_nodes":[],"categories_segments":[],"categories_sizes":[],"default_left":[0,1,0,1,1,0,1,0,0,1,0,0,0,1,0,0,0,0,0,0,0,0,0,0,0,0,0,0,0,0,0],"id":27,"left_children":[1,3,5,7,9,11,13,15,17,19,21,23,25,27,29,-1,-1,-1,-1,-1,-1,-1,-1,-1,-1,-1,-1,-1,-1,-1,-1],"loss_changes":[3.566931E2,1.3043741E2,2.9143353E2,1.2145549E2,9.4784454E1,1.1044162E2,3.0495926E2,1.0211966E2,6.720276E1,6.828323E1,3.863219E1,3.1323822E1,7.0897575E1,3.016567E2,8.458249E1,0E0,0E0,0E0,0E0,0E0,0E0,0E0,0E0,0E0,0E0,0E0,0E0,0E0,0E0,0E0,0E0],"parents":[2147483647,0,0,1,1,2,2,3,3,4,4,5,5,6,6,7,7,8,8,9,9,10,10,11,11,12,12,13,13,14,14],"right_children":[2,4,6,8,10,12,14,16,18,20,22,24,26,28,30,-1,-1,-1,-1,-1,-1,-1,-1,-1,-1,-1,-1,-1,-1,-1,-1],"split_conditions":[2.00001E0,9.878964E-2,4.8865297E-1,3.9695345E-2,1.5672785E-1,5.11471E-2,1.4014189E-1,4.395285E-1,9.044545E-2,5.937393E-2,3.6035144E-1,1.0434494E-1,1.401252E-1,1.2121338E-1,8.89739E-2,2.7038071E-2,-2.0476388E-4,-1.3843483E-1,-2.0493677E-2,4.1019674E-2,1.1596934E-1,3.218643E-2,-8.349636E-2,9.4298445E-2,4.07616E-2,3.4493802E-3,2.3501081E-2,-6.732682E-3,3.521634E-2,7.470354E-2,2.3791749E-2],"split_indices":[65,227,311,266,122,130,242,294,258,163,140,216,167,239,167,0,0,0,0,0,0,0,0,0,0,0,0,0,0,0,0],"split_type":[0,0,0,0,0,0,0,0,0,0,0,0,0,0,0,0,0,0,0,0,0,0,0,0,0,0,0,0,0,0,0],"sum_hessian":[1.9721E4,1.942E3,1.7779E4,1.787E3,1.55E2,1.896E3,1.5883E4,1.704E3,8.3E1,1.28E2,2.7E1,1.24E2,1.772E3,1.5455E4,4.28E2,1.229E3,4.75E2,1.4E1,6.9E1,5.9E1,6.9E1,1.5E1,1.2E1,4.7E1,7.7E1,9.19E2,8.53E2,1.5015E4,4.4E2,1.11E2,3.17E2],"tree_param":{"num_deleted":"0","num_feature":"350","num_nodes":"31","size_leaf_vector":"1"}},{"base_weights":[1.0007019E-2,-5.137916E-1,5.068186E-2,6.5917623E-1,-5.9056693E-1,7.263514E-1,2.5755238E-2,-1.6464645E0,9.527305E-1,-1.4909998E0,-5.036306E-1,-2.202263E-1,8.922783E-1,-2.04345E-2,3.646244E-1,-1.9198552E-2,-1.1703991E-1,1.4070126E-2,7.697522E-2,-4.9886476E-2,-1.2727761E-1,-1.1579164E-1,-2.3157941E-2,2.6662105E-3,-4.942557E-2,5.213074E-2,-7.4476004E-5,-2.5729302E-3,2.936525E-2,2.0781256E-2,-7.195852E-2],"categories":[],"categories_nodes":[],"categories_segments":[],"categories_sizes":[],"default_left":[0,0,0,1,0,0,1,1,1,1,0,1,1,1,1,0,0,0,0,0,0,0,0,0,0,0,0,0,0,0,0],"id":28,"left_children":[1,3,5,7,9,11,13,15,17,19,21,23,25,27,29,-1,-1,-1,-1,-1,-1,-1,-1,-1,-1,-1,-1,-1,-1,-1,-1],"loss_changes":[4.184035E2,1.2778281E2,3.0670514E2,6.0106033E1,1.0228635E2,1.02309204E2,2.7545618E2,6.504736E0,2.9381905E1,5.602939E1,8.657626E1,2.0906284E1,7.469208E1,2.9157452E2,1.9428748E2,0E0,0E0,0E0,0E0,0E0,0E0,0E0,0E0,0E0,0E0,0E0,0E0,0E0,0E0,0E0,0E0],"parents":[2147483647,0,0,1,1,2,2,3,3,4,4,5,5,6,6,7,7,8,8,9,9,10,10,11,11,12,12,13,13,14,14],"right_children":[2,4,6,8,10,12,14,16,18,20,22,24,26,28,30,-1,-1,-1,-1,-1,-1,-1,-1,-1,-1,-1,-1,-1,-1,-1,-1],"split_conditions":[2.00001E0,6.6351004E-2,3.2603434E-1,8.409297E-2,1.4171892E-1,1.7145357E-1,6.703366E-2,4.4333532E-2,1.0818751E-1,7.6671906E-2,5.751831E-1,4.641308E-2,6.569108E-2,1.1642575E-1,2.3026635E-1,-1.9198552E-2,-1.1703991E-1,1.4070126E-2,7.697522E-2,-4.9886476E-2,-1.2727761E-1,-1.1579164E-1,-2.3157941E-2,2.6662105E-3,-4.942557E-2,5.213074E-2,-7.4476004E-5,-2.5729302E-3,2.936525E-2,2.0781256E-2,-7.195852E-2],"split_indices":[329,164,326,268,206,273,217,145,273,135,61,234,119,225,205,0,0,0,0,0,0,0,0,0,0,0,0,0,0,0,0],"split_type":[0,0,0,0,0,0,0,0,0,0,0,0,0,0,0,0,0,0,0,0,0,0,0,0,0,0,0,0,0,0,0],"sum_hessian":[1.9647E4,1.414E3,1.8233E4,8.6E1,1.328E3,6.47E2,1.7586E4,9E0,7.7E1,1.15E2,1.213E3,9.6E1,5.51E2,1.5476E4,2.11E3,4E0,5E0,3.7E1,4E1,8E1,3.5E1,2.5E1,1.188E3,7.1E1,2.5E1,4.72E2,7.9E1,1.4726E4,7.5E2,2.053E3,5.7E1],"tree_param":{"num_deleted":"0","num_feature":"350","num_nodes":"31","size_leaf_vector":"1"}},{"base_weights":[3.4838468E-3,-4.307809E-2,3.5983455E-1,6.1819816E-1,-6.857211E-2,-2.8909343E-1,4.8422065E-1,-5.6162906E-1,7.270591E-1,1.5851461E0,-7.8369744E-2,-1.5173592E-1,-1.3232636E-1,3.7043595E-1,1.185829E0,-5.225092E-2,2.0119457E-3,4.5805003E-2,5.1280535E-3,-1.18473135E-2,8.449529E-2,-6.861664E-3,8.8363765E-3,-9.375049E-2,-1.4266983E-3,5.727473E-2,1.2616609E-2,6.57841E-2,-4.5110963E-2],"categories":[],"categories_nodes":[],"categories_segments":[],"categories_sizes":[],"default_left":[1,0,0,0,0,1,1,1,1,0,1,0,0,0,1,0,0,0,0,0,0,0,0,0,0,0,0,0,0],"id":29,"left_children":[1,3,5,7,9,11,13,15,17,19,21,23,-1,25,27,-1,-1,-1,-1,-1,-1,-1,-1,-1,-1,-1,-1,-1,-1],"loss_changes":[3.2848727E2,2.947929E2,1.8491946E2,8.3846756E1,2.7241577E2,1.1736183E2,1.5214041E2,1.654595E1,6.963983E1,2.0024185E1,2.5158133E2,7.309116E1,0E0,1.5050636E2,7.378793E1,0E0,0E0,0E0,0E0,0E0,0E0,0E0,0E0,0E0,0E0,0E0,0E0,0E0,0E0],"parents":[2147483647,0,0,1,1,2,2,3,3,4,4,5,5,6,6,7,7,8,8,9,9,10,10,11,11,13,13,14,14],"right_children":[2,4,6,8,10,12,14,16,18,20,22,24,-1,26,28,-1,-1,-1,-1,-1,-1,-1,-1,-1,-1,-1,-1,-1,-1],"split_conditions":[5.3422045E-2,7.809741E-2,1.8204609E-1,6.780179E-2,2.1428104E-2,6.7652136E-2,1.1976096E-1,2.6114259E-2,3.5351563E-2,4.3611836E-1,1.2736458E-1,7.85031E-2,-1.3232636E-1,1.9384219E-1,1.274826E-1,-5.225092E-2,2.0119457E-3,4.5805003E-2,5.1280535E-3,-1.18473135E-2,8.449529E-2,-6.861664E-3,8.8363765E-3,-9.375049E-2,-1.4266983E-3,5.727473E-2,1.2616609E-2,6.57841E-2,-4.5110963E-2],"split_indices":[102,250,219,142,279,255,292,279,205,93,298,296,0,274,295,0,0,0,0,0,0,0,0,0,0,0,0,0,0],"split_type":[0,0,0,0,0,0,0,0,0,0,0,0,0,0,0,0,0,0,0,0,0,0,0,0,0,0,0,0,0],"sum_hessian":[1.9786E4,1.7499E4,2.287E3,6.48E2,1.6851E4,3.67E2,1.92E3,5.4E1,5.94E2,9.8E1,1.6753E4,3.48E2,1.9E1,1.654E3,2.66E2,3E1,2.4E1,4.55E2,1.39E2,5E0,9.3E1,1.3614E4,3.139E3,2.2E1,3.26E2,2.17E2,1.437E3,2.51E2,1.5E1],"tree_param":{"num_deleted":"0","num_feature":"350","num_nodes":"29","size_leaf_vector":"1"}},{"base_weights":[5.0245444E-3,-3.1126214E-2,4.8987275E-1,9.142722E-3,-4.004149E-1,5.149761E-1,-1.6386428E-1,3.524309E-1,-4.991946E-2,-2.9603937E-1,-1.8352536E0,1.0707253E0,3.67559E-1,1.1444968E-2,4.7516476E-2,-2.0665012E-3,-1.2951893E-1,-1.1874354E-1,-1.2361857E-2,-1.4382371E-1,-6.194765E-2,-4.886388E-2,6.511527E-2,1.541618E-2,1.1318739E-1],"categories":[],"categories_nodes":[],"categories_segments":[],"categories_sizes":[],"default_left":[1,1,1,0,1,0,0,1,1,0,0,0,1,0,0,0,0,0,0,0,0,0,0,0,0],"id":30,"left_children":[1,3,5,7,9,11,-1,13,15,17,19,21,23,-1,-1,-1,-1,-1,-1,-1,-1,-1,-1,-1,-1],"loss_changes":[3.432779E2,2.7104233E2,1.2882462E2,3.3313065E2,2.6676465E2,1.0957056E2,0E0,1.7734158E2,3.0431274E2,1.6772885E2,6.9504974E1,1.351813E2,1.1820001E2,0E0,0E0,0E0,0E0,0E0,0E0,0E0,0E0,0E0,0E0,0E0,0E0],"parents":[2147483647,0,0,1,1,2,2,3,3,4,4,5,5,7,7,8,8,9,9,10,10,11,11,12,12],"right_children":[2,4,6,8,10,12,-1,14,16,18,20,22,24,-1,-1,-1,-1,-1,-1,-1,-1,-1,-1,-1,-1],"split_conditions":[3.1274733E-1,4.4243395E-2,3.1028178E-1,1.06401734E-1,1.7464882E-1,1.4400028E-1,-1.6386428E-1,8.0733895E-2,7.302543E-1,6.030018E-2,3.0798092E-1,8.687736E-2,7.164321E-1,1.1444968E-2,4.7516476E-2,-2.0665012E-3,-1.2951893E-1,-1.1874354E-1,-1.2361857E-2,-1.4382371E-1,-6.194765E-2,-4.886388E-2,6.511527E-2,1.541618E-2,1.1318739E-1],"split_indices":[88,202,234,283,205,225,0,274,19,157,274,174,332,0,0,0,0,0,0,0,0,0,0,0,0],"split_type":[0,0,0,0,0,0,0,0,0,0,0,0,0,0,0,0,0,0,0,0,0,0,0,0,0],"sum_hessian":[1.957E4,1.8212E4,1.358E3,1.6421E4,1.791E3,1.35E3,8E0,2.411E3,1.401E4,1.671E3,1.2E2,2.81E2,1.069E3,2E3,4.11E2,1.3964E4,4.6E1,3.7E1,1.634E3,4.2E1,7.8E1,2.8E1,2.53E2,1.038E3,3.1E1],"tree_param":{"num_deleted":"0","num_feature":"350","num_nodes":"25","size_leaf_vector":"1"}},{"base_weights":[2.6216453E-3,-3.871587E-2,4.5237762E-1,-9.685393E-3,-6.07408E-1,-3.235584E-1,5.4493344E-1,6.95831E-1,-3.1778354E-2,-1.5474495E0,-3.3141455E-1,-4.804214E-2,-1.5945846E0,6.1194223E-1,-5.529634E-1,-1.3167642E-2,4.0110793E-2,-3.188811E-3,2.2619002E-2,-1.8047844E-1,-6.521241E-2,-1.0429313E-2,-9.787667E-2,8.088659E-3,-5.4500964E-2,-7.658887E-3,-1.07728064E-1,3.2750484E-2,-4.0547993E-2,-4.9567046E-3,-9.98976E-2],"categories":[],"categories_nodes":[],"categories_segments":[],"categories_sizes":[],"default_left":[1,1,0,0,0,1,1,0,1,0,1,1,0,1,1,0,0,0,0,0,0,0,0,0,0,0,0,0,0,0,0],"id":31,"left_children":[1,3,5,7,9,11,13,15,17,19,21,23,25,27,29,-1,-1,-1,-1,-1,-1,-1,-1,-1,-1,-1,-1,-1,-1,-1,-1],"loss_changes":[3.6464215E2,2.960459E2,1.1885748E2,2.659307E2,2.245246E2,6.0735237E1,1.08955414E2,5.333876E1,2.5644458E2,9.163281E1,1.3332867E2,3.255938E1,2.3537872E1,8.575574E1,5.4494537E1,0E0,0E0,0E0,0E0,0E0,0E0,0E0,0E0,0E0,0E0,0E0,0E0,0E0,0E0,0E0,0E0],"parents":[2147483647,0,0,1,1,2,2,3,3,4,4,5,5,6,6,7,7,8,8,9,9,10,10,11,11,12,12,13,13,14,14],"right_children":[2,4,6,8,10,12,14,16,18,20,22,24,26,28,30,-1,-1,-1,-1,-1,-1,-1,-1,-1,-1,-1,-1,-1,-1,-1,-1],"split_conditions":[3.5201487E-1,1.5156937E-1,1.3796365E-1,3.2603434E-1,1.0105612E-1,2.0459637E-2,2.1155232E-1,1.1594432E-1,2.4857378E-1,5.781529E-2,1.7464882E-1,1.0588762E-1,9.063849E-2,5.9746945E-1,1.0903075E-1,-1.3167642E-2,4.0110793E-2,-3.188811E-3,2.2619002E-2,-1.8047844E-1,-6.521241E-2,-1.0429313E-2,-9.787667E-2,8.088659E-3,-5.4500964E-2,-7.658887E-3,-1.07728064E-1,3.2750484E-2,-4.0547993E-2,-4.9567046E-3,-9.98976E-2],"split_indices":[65,202,207,326,219,278,166,273,298,222,205,239,219,73,111,0,0,0,0,0,0,0,0,0,0,0,0,0,0,0,0],"split_type":[0,0,0,0,0,0,0,0,0,0,0,0,0,0,0,0,0,0,0,0,0,0,0,0,0,0,0,0,0,0,0],"sum_hessian":[1.96E4,1.795E4,1.65E3,1.708E4,8.7E2,1.75E2,1.475E3,5.17E2,1.6563E4,1.96E2,6.74E2,1.45E2,3E1,1.391E3,8.4E1,5.1E1,4.66E2,1.5538E4,1.025E3,1.9E1,1.77E2,6.28E2,4.6E1,1.21E2,2.4E1,9E0,2.1E1,1.351E3,4E1,6.5E1,1.9E1],"tree_param":{"num_deleted":"0","num_feature":"350","num_nodes":"31","size_leaf_vector":"1"}},{"base_weights":[3.301722E-3,2.4516547E-2,-6.7513233E-1,1.6881594E-1,-7.167934E-2,5.315877E-1,-7.895278E-1,2.394598E-1,-3.5238057E-1,8.747062E-4,-4.4059125E-1,-2.0389438E-1,8.4878033E-1,-1.9451064E0,-6.760132E-1,3.649275E-2,8.924323E-3,-2.2365177E-2,3.1826627E-2,-1.9426324E-3,3.109212E-2,5.611461E-2,-2.4858776E-2,5.8485414E-3,-3.5228703E-2,4.893787E-2,1.40050575E-2,-2.1213394E-2,-1.1361849E-1,-3.649599E-2,6.805497E-2],"categories":[],"categories_nodes":[],"categories_segments":[],"categories_sizes":[],"default_left":[1,0,0,1,1,0,0,0,1,1,0,0,1,0,1,0,0,0,0,0,0,0,0,0,0,0,0,0,0,0,0],"id":32,"left_children":[1,3,5,7,9,11,13,15,17,19,21,23,25,27,29,-1,-1,-1,-1,-1,-1,-1,-1,-1,-1,-1,-1,-1,-1,-1,-1],"loss_changes":[2.8386386E2,2.6584033E2,8.309857E1,2.8210083E2,3.0768185E2,1.2626559E1,6.912723E1,2.0118774E2,8.598781E1,2.3711725E2,1.6729843E2,2.9466271E0,1.8312817E0,2.1577927E1,5.558487E1,0E0,0E0,0E0,0E0,0E0,0E0,0E0,0E0,0E0,0E0,0E0,0E0,0E0,0E0,0E0,0E0],"parents":[2147483647,0,0,1,1,2,2,3,3,4,4,5,5,6,6,7,7,8,8,9,9,10,10,11,11,12,12,13,13,14,14],"right_children":[2,4,6,8,10,12,14,16,18,20,22,24,26,28,30,-1,-1,-1,-1,-1,-1,-1,-1,-1,-1,-1,-1,-1,-1,-1,-1],"split_conditions":[7.275178E-1,2.00001E0,9.6903406E-2,5.463581E-2,2.6926807E-1,7.163812E-2,7.4373566E-2,7.82316E-1,1.4887846E-1,2.623892E-1,2.8504077E-1,1.969852E-1,6.1136004E-2,9.442365E-2,5.325576E-1,3.649275E-2,8.924323E-3,-2.2365177E-2,3.1826627E-2,-1.9426324E-3,3.109212E-2,5.611461E-2,-2.4858776E-2,5.8485414E-3,-3.5228703E-2,4.893787E-2,1.40050575E-2,-2.1213394E-2,-1.1361849E-1,-3.649599E-2,6.805497E-2],"split_indices":[329,122,246,237,258,121,156,328,190,298,301,328,105,282,155,0,0,0,0,0,0,0,0,0,0,0,0,0,0,0,0],"split_type":[0,0,0,0,0,0,0,0,0,0,0,0,0,0,0,0,0,0,0,0,0,0,0,0,0,0,0,0,0,0,0],"sum_hessian":[1.9743E4,1.9146E4,5.97E2,7.66E3,1.1486E4,5.1E1,5.46E2,6.747E3,9.13E2,9.598E3,1.888E3,1.5E1,3.6E1,4.7E1,4.99E2,7.44E2,6.003E3,8.34E2,7.9E1,9.021E3,5.77E2,6.5E1,1.823E3,9E0,6E0,2.8E1,8E0,9E0,3.8E1,4.87E2,1.2E1],"tree_param":{"num_deleted":"0","num_feature":"350","num_nodes":"31","size_leaf_vector":"1"}},{"base_weights":[1.5760153E-3,3.355063E-2,-4.158683E-1,-4.8583236E-1,6.0205642E-2,2.9205942E-1,-5.7567656E-1,-2.6369393E-1,-1.0867792E0,-1.0838861E0,7.2905615E-2,6.4604305E-2,2.060858E0,7.346638E-1,-6.906342E-1,1.07941395E-2,-2.8517459E-2,-1.0349569E-2,-8.0672495E-2,6.604233E-2,-6.427587E-2,5.4444554E-3,-1.491072E-2,-7.9025656E-2,9.481915E-3,1.10120036E-1,-0E0,8.87906E-2,-2.7768055E-3,-2.2831025E-2,-6.2232595E-2],"categories":[],"categories_nodes":[],"categories_segments":[],"categories_sizes":[],"default_left":[1,0,0,1,0,1,0,0,1,0,1,0,0,0,1,0,0,0,0,0,0,0,0,0,0,0,0,0,0,0,0],"id":33,"left_children":[1,3,5,7,9,11,13,15,17,19,21,23,25,27,29,-1,-1,-1,-1,-1,-1,-1,-1,-1,-1,-1,-1,-1,-1,-1,-1],"loss_changes":[2.6172983E2,2.5216782E2,1.5813002E2,1.1771379E2,2.5152258E2,1.0220095E2,1.7205713E2,9.603949E1,1.0949844E2,9.3805435E1,2.2897562E2,4.670858E1,7.7984085E0,7.664857E1,1.3445181E2,0E0,0E0,0E0,0E0,0E0,0E0,0E0,0E0,0E0,0E0,0E0,0E0,0E0,0E0,0E0,0E0],"parents":[2147483647,0,0,1,1,2,2,3,3,4,4,5,5,6,6,7,7,8,8,9,9,10,10,11,11,12,12,13,13,14,14],"right_children":[2,4,6,8,10,12,14,16,18,20,22,24,26,28,30,-1,-1,-1,-1,-1,-1,-1,-1,-1,-1,-1,-1,-1,-1,-1,-1],"split_conditions":[1.9808142E-1,1.8441862E-1,1.5015925E-1,7.190138E-2,2.00001E0,7.476584E-2,5.433765E-1,2.67154E-1,1.7372632E-2,4.5706517E-1,3.531083E-2,8.041657E-2,1.2711313E-1,9.986043E-2,1.3231196E-1,1.07941395E-2,-2.8517459E-2,-1.0349569E-2,-8.0672495E-2,6.604233E-2,-6.427587E-2,5.4444554E-3,-1.491072E-2,-7.9025656E-2,9.481915E-3,1.10120036E-1,-0E0,8.87906E-2,-2.7768055E-3,-2.2831025E-2,-6.2232595E-2],"split_indices":[166,198,108,295,19,167,301,122,139,64,202,289,125,298,223,0,0,0,0,0,0,0,0,0,0,0,0,0,0,0,0],"split_type":[0,0,0,0,0,0,0,0,0,0,0,0,0,0,0,0,0,0,0,0,0,0,0,0,0,0,0,0,0,0,0],"sum_hessian":[1.9621E4,1.8227E4,1.394E3,8.88E2,1.7339E4,2.56E2,1.138E3,6.5E2,2.38E2,1.89E2,1.715E4,2.28E2,2.8E1,9.1E1,1.047E3,2.53E2,3.97E2,9E1,1.48E2,1.4E1,1.75E2,1.5636E4,1.514E3,1.5E1,2.13E2,2.6E1,2E0,3.9E1,5.2E1,7.38E2,3.09E2],"tree_param":{"num_deleted":"0","num_feature":"350","num_nodes":"31","size_leaf_vector":"1"}},{"base_weights":[-1.2426498E-2,-5.373431E-2,3.0598387E-1,-7.349561E-2,6.770635E-1,1.9999655E-1,9.433591E-1,1.9247179E-1,-1.17831506E-1,8.9472175E-1,1.5689561E-1,1.2402583E-1,1.1941514E0,1.878888E0,6.5838933E-1,1.2366454E-2,-3.5681266E-2,2.0367964E-3,-1.0081938E-2,4.8306074E-2,-3.5468355E-2,1.6737372E-2,-5.444042E-2,5.830649E-4,4.163372E-2,-2.0366346E-2,7.142943E-2,1.2036971E-1,6.3590184E-2,2.6882414E-2,1.3805987E-1],"categories":[],"categories_nodes":[],"categories_segments":[],"categories_sizes":[],"default_left":[1,1,1,0,1,1,0,1,0,1,0,1,0,0,1,0,0,0,0,0,0,0,0,0,0,0,0,0,0,0,0],"id":34,"left_children":[1,3,5,7,9,11,13,15,17,19,21,23,25,27,29,-1,-1,-1,-1,-1,-1,-1,-1,-1,-1,-1,-1,-1,-1,-1,-1],"loss_changes":[2.5865918E2,2.5127588E2,1.5177586E2,1.9997603E2,5.1188034E1,1.4556345E2,8.307208E1,1.2033138E2,1.9329886E2,3.769287E1,3.0339895E1,1.4305592E2,5.2528656E1,1.884143E1,5.9832054E1,0E0,0E0,0E0,0E0,0E0,0E0,0E0,0E0,0E0,0E0,0E0,0E0,0E0,0E0,0E0,0E0],"parents":[2147483647,0,0,1,1,2,2,3,3,4,4,5,5,6,6,7,7,8,8,9,9,10,10,11,11,12,12,13,13,14,14],"right_children":[2,4,6,8,10,12,14,16,18,20,22,24,26,28,30,-1,-1,-1,-1,-1,-1,-1,-1,-1,-1,-1,-1,-1,-1,-1,-1],"split_conditions":[5.3422045E-2,3.2908383E-1,2.2408329E-1,2.1486773E-1,4.029592E-2,3.8111815E-1,5.1193005E-1,2.678968E-1,1.4444897E-1,5.5574954E-2,4.674347E-1,4.0964246E-1,1.8643409E-1,2.6033738E-1,1.9791676E-1,1.2366454E-2,-3.5681266E-2,2.0367964E-3,-1.0081938E-2,4.8306074E-2,-3.5468355E-2,1.6737372E-2,-5.444042E-2,5.830649E-4,4.163372E-2,-2.0366346E-2,7.142943E-2,1.2036971E-1,6.3590184E-2,2.6882414E-2,1.3805987E-1],"split_indices":[102,298,122,217,226,343,128,226,294,259,130,86,163,122,145,0,0,0,0,0,0,0,0,0,0,0,0,0,0,0,0],"split_type":[0,0,0,0,0,0,0,0,0,0,0,0,0,0,0,0,0,0,0,0,0,0,0,0,0,0,0,0,0,0,0],"sum_hessian":[1.9673E4,1.7416E4,2.257E3,1.6959E4,4.57E2,1.937E3,3.2E2,2.421E3,1.4538E4,3.21E2,1.36E2,1.801E3,1.36E2,7.3E1,2.47E2,2.284E3,1.37E2,5.025E3,9.513E3,3.08E2,1.3E1,1.2E2,1.6E1,1.556E3,2.45E2,1.7E1,1.19E2,3.7E1,3.6E1,2.35E2,1.2E1],"tree_param":{"num_deleted":"0","num_feature":"350","num_nodes":"31","size_leaf_vector":"1"}},{"base_weights":[-5.7921614E-5,2.9226774E-2,-4.2809153E-1,-5.283989E-1,5.715211E-2,-5.345459E-1,9.837144E-1,-3.3159757E-1,-1.0582529E0,4.6127972E-1,2.450471E-2,-7.330484E-1,4.3986205E-2,1.8958225E0,4.0343958E-1,-1.210304E-2,-1.0131975E-1,-5.8954507E-2,8.823728E-2,3.0712327E-2,-1.13136135E-2,5.512884E-4,4.7884706E-2,-3.092572E-2,-1.04213476E-1,8.308457E-3,-7.118158E-2,4.175353E-2,1.1121452E-1,-9.5537394E-2,2.6689684E-2],"categories":[],"categories_nodes":[],"categories_segments":[],"categories_sizes":[],"default_left":[1,0,1,1,0,1,0,1,1,1,1,1,1,0,0,0,0,0,0,0,0,0,0,0,0,0,0,0,0,0,0],"id":35,"left_children":[1,3,5,7,9,11,13,15,17,19,21,23,25,27,29,-1,-1,-1,-1,-1,-1,-1,-1,-1,-1,-1,-1,-1,-1,-1,-1],"loss_changes":[2.4838913E2,2.8835715E2,1.9102298E2,9.102985E1,2.3260172E2,1.3600287E2,4.519085E1,9.640363E1,8.297534E1,1.389505E2,2.049356E2,1.3354883E2,5.376182E1,8.459267E0,1.7224646E1,0E0,0E0,0E0,0E0,0E0,0E0,0E0,0E0,0E0,0E0,0E0,0E0,0E0,0E0,0E0,0E0],"parents":[2147483647,0,0,1,1,2,2,3,3,4,4,5,5,6,6,7,7,8,8,9,9,10,10,11,11,12,12,13,13,14,14],"right_children":[2,4,6,8,10,12,14,16,18,20,22,24,26,28,30,-1,-1,-1,-1,-1,-1,-1,-1,-1,-1,-1,-1,-1,-1,-1,-1],"split_conditions":[2.0728414E-1,1.8441862E-1,2.5224376E-1,1.5673676E-1,2.3499934E-1,6.981793E-2,7.646239E-2,1.0171501E-1,1.1908452E-1,2.0168813E-2,2.3124196E-1,1.09374665E-1,2.3518908E-1,8.4054965E-1,1.1684891E-1,-1.210304E-2,-1.0131975E-1,-5.8954507E-2,8.823728E-2,3.0712327E-2,-1.13136135E-2,5.512884E-4,4.7884706E-2,-3.092572E-2,-1.04213476E-1,8.308457E-3,-7.118158E-2,4.175353E-2,1.1121452E-1,-9.5537394E-2,2.6689684E-2],"split_indices":[166,198,301,130,239,171,268,296,289,273,242,155,285,44,102,0,0,0,0,0,0,0,0,0,0,0,0,0,0,0,0],"split_type":[0,0,0,0,0,0,0,0,0,0,0,0,0,0,0,0,0,0,0,0,0,0,0,0,0,0,0,0,0,0,0],"sum_hessian":[1.9798E4,1.853E4,1.268E3,8.82E2,1.7648E4,1.18E3,8.8E1,6.45E2,2.37E2,1.317E3,1.6331E4,8.79E2,3.01E2,3.3E1,5.5E1,6.14E2,3.1E1,2.28E2,9E0,1.078E3,2.39E2,1.61E4,2.31E2,8.12E2,6.7E1,2.79E2,2.2E1,9E0,2.4E1,2E0,5.3E1],"tree_param":{"num_deleted":"0","num_feature":"350","num_nodes":"31","size_leaf_vector":"1"}},{"base_weights":[-3.5610567E-3,-4.028926E-2,3.800076E-1,-5.4720445E-3,-4.1250524E-1,3.1376764E-1,1.3261241E0,-9.1509216E-2,2.0470771E-1,-1.3059058E0,-2.3796569E-1,3.6373147E-1,-1.1261839E0,1.8303084E0,2.4114761E-1,2.0656793E-3,-1.3970481E-2,1.8363459E-2,-3.0850738E-3,-7.765151E-2,1.7926114E-2,-4.6874397E-2,-2.0419965E-3,-3.917437E-3,2.5859246E-2,-9.348675E-2,1.5780343E-2,3.8375787E-2,1.0575267E-1,-4.8538055E-2,3.1309158E-2],"categories":[],"categories_nodes":[],"categories_segments":[],"categories_sizes":[],"default_left":[1,1,1,1,0,1,0,0,1,1,0,0,0,1,0,0,0,0,0,0,0,0,0,0,0,0,0,0,0,0,0],"id":36,"left_children":[1,3,5,7,9,11,13,15,17,19,21,23,25,27,29,-1,-1,-1,-1,-1,-1,-1,-1,-1,-1,-1,-1,-1,-1,-1,-1],"loss_changes":[2.7795248E2,2.3329349E2,1.0680827E2,2.9795636E2,2.3905527E2,1.1607654E2,5.979007E1,2.9200803E2,2.0740355E2,1.0439554E2,1.7735559E2,1.0608838E2,5.9257607E1,1.9934875E1,1.7700817E1,0E0,0E0,0E0,0E0,0E0,0E0,0E0,0E0,0E0,0E0,0E0,0E0,0E0,0E0,0E0,0E0],"parents":[2147483647,0,0,1,1,2,2,3,3,4,4,5,5,6,6,7,7,8,8,9,9,10,10,11,11,12,12,13,13,14,14],"right_children":[2,4,6,8,10,12,14,16,18,20,22,24,26,28,30,-1,-1,-1,-1,-1,-1,-1,-1,-1,-1,-1,-1,-1,-1,-1,-1],"split_conditions":[3.317542E-1,1.3005257E-1,1.3489802E-1,1.6802083E-1,6.964932E-1,5.432109E-2,7.934193E-2,3.427306E-1,2.2467261E-2,1.8552895E-1,3.8090298E-1,6.419668E-1,2.4332975E-1,5.937393E-2,1.639663E-1,2.0656793E-3,-1.3970481E-2,1.8363459E-2,-3.0850738E-3,-7.765151E-2,1.7926114E-2,-4.6874397E-2,-2.0419965E-3,-3.917437E-3,2.5859246E-2,-9.348675E-2,1.5780343E-2,3.8375787E-2,1.0575267E-1,-4.8538055E-2,3.1309158E-2],"split_indices":[65,205,227,164,202,266,167,163,221,154,255,207,258,163,163,0,0,0,0,0,0,0,0,0,0,0,0,0,0,0,0],"split_type":[0,0,0,0,0,0,0,0,0,0,0,0,0,0,0,0,0,0,0,0,0,0,0,0,0,0,0,0,0,0,0],"sum_hessian":[1.974E4,1.8017E4,1.723E3,1.6478E4,1.539E3,1.612E3,1.11E2,1.1694E4,4.784E3,2.5E2,1.289E3,1.559E3,5.3E1,7.5E1,3.6E1,6.85E3,4.844E3,2.972E3,1.812E3,2.18E2,3.2E1,2.82E2,1.007E3,4.01E2,1.158E3,3.5E1,1.8E1,1.7E1,5.8E1,8E0,2.8E1],"tree_param":{"num_deleted":"0","num_feature":"350","num_nodes":"31","size_leaf_vector":"1"}},{"base_weights":[-1.4527794E-3,2.2333656E-1,-5.828758E-2,1.3443367E-1,6.520457E-1,3.8711673E-1,-9.583577E-2,3.0694848E-1,-1.2206173E-1,1.0060612E0,3.973182E-1,7.411256E-1,-6.9989756E-2,-1.1359423E-1,9.034597E-1,1.1117503E-2,4.9330905E-2,8.9181416E-2,-8.3810305E-3,4.455085E-2,1.6574933E-1,6.1248876E-2,6.7791673E-3,2.7118478E-2,7.2214894E-2,-1.280158E-1,7.6115166E-4,-5.3105094E-3,-1.1298112E-1,3.7574388E-2,1.4787257E-1],"categories":[],"categories_nodes":[],"categories_segments":[],"categories_sizes":[],"default_left":[0,1,0,0,1,1,1,0,0,1,0,1,0,1,1,0,0,0,0,0,0,0,0,0,0,0,0,0,0,0,0],"id":37,"left_children":[1,3,5,7,9,11,13,15,17,19,21,23,25,27,29,-1,-1,-1,-1,-1,-1,-1,-1,-1,-1,-1,-1,-1,-1,-1,-1],"loss_changes":[2.5369737E2,1.5223982E2,2.6508594E2,1.470817E2,6.0850494E1,1.9974937E2,2.5925986E2,1.1342656E2,1.153971E2,7.0912994E1,8.6237816E1,9.535632E1,1.1547923E2,2.2632094E2,7.55211E1,0E0,0E0,0E0,0E0,0E0,0E0,0E0,0E0,0E0,0E0,0E0,0E0,0E0,0E0,0E0,0E0],"parents":[2147483647,0,0,1,1,2,2,3,3,4,4,5,5,6,6,7,7,8,8,9,9,10,10,11,11,12,12,13,13,14,14],"right_children":[2,4,6,8,10,12,14,16,18,20,22,24,26,28,30,-1,-1,-1,-1,-1,-1,-1,-1,-1,-1,-1,-1,-1,-1,-1,-1],"split_conditions":[6.5731966E-1,5.3652145E-2,1.5380359E-1,1.5792544E-1,4.9335662E-2,2.4382144E-2,1.7047164E-1,2.2406505E-1,1.6964506E-1,9.5581904E-2,7.650149E-2,5.1339902E-2,7.676355E-1,7.302543E-1,2.1244775E-1,1.1117503E-2,4.9330905E-2,8.9181416E-2,-8.3810305E-3,4.455085E-2,1.6574933E-1,6.1248876E-2,6.7791673E-3,2.7118478E-2,7.2214894E-2,-1.280158E-1,7.6115166E-4,-5.3105094E-3,-1.1298112E-1,3.7574388E-2,1.4787257E-1],"split_indices":[196,102,118,226,268,147,242,196,321,287,294,256,124,19,185,0,0,0,0,0,0,0,0,0,0,0,0,0,0,0,0],"split_type":[0,0,0,0,0,0,0,0,0,0,0,0,0,0,0,0,0,0,0,0,0,0,0,0,0,0,0,0,0,0,0],"sum_hessian":[1.9862E4,4.006E3,1.5856E4,3.32E3,6.86E2,1.231E3,1.4625E4,1.986E3,1.334E3,2.85E2,4.01E2,6.94E2,5.37E2,1.4371E4,2.54E2,1.768E3,2.18E2,3E1,1.304E3,2.73E2,1.2E1,9.5E1,3.06E2,5.43E2,1.51E2,1.7E1,5.2E2,1.4323E4,4.8E1,2.38E2,1.6E1],"tree_param":{"num_deleted":"0","num_feature":"350","num_nodes":"31","size_leaf_vector":"1"}},{"base_weights":[-2.5668726E-4,1.8732704E-2,-6.7584246E-1,6.4168066E-2,-2.559281E-1,-7.964069E-1,1.5522681E0,3.7280243E-2,6.4551216E-1,-3.1938374E-1,6.8932277E-1,-2.2030964E-1,-7.2265095E-1,8.269336E-2,-0E0,2.7161012E-3,-4.231025E-2,6.8138726E-2,2.421706E-2,-2.1048902E-2,9.396413E-3,-5.5145886E-2,4.745951E-2,-3.341038E-2,-1.9862646E-1],"categories":[],"categories_nodes":[],"categories_segments":[],"categories_sizes":[],"default_left":[1,1,1,1,1,0,1,1,0,0,0,0,1,0,0,0,0,0,0,0,0,0,0,0,0],"id":38,"left_children":[1,3,5,7,9,11,13,15,17,19,21,-1,23,-1,-1,-1,-1,-1,-1,-1,-1,-1,-1,-1,-1],"loss_changes":[2.5479085E2,2.4067145E2,1.4672487E2,2.5842264E2,1.6420462E2,1.3163297E2,3.650177E0,2.3792883E2,8.292136E1,1.3244727E2,8.107811E1,0E0,8.4730804E1,0E0,0E0,0E0,0E0,0E0,0E0,0E0,0E0,0E0,0E0,0E0,0E0],"parents":[2147483647,0,0,1,1,2,2,3,3,4,4,5,5,6,6,7,7,8,8,9,9,10,10,12,12],"right_children":[2,4,6,8,10,12,14,16,18,20,22,-1,24,-1,-1,-1,-1,-1,-1,-1,-1,-1,-1,-1,-1],"split_conditions":[1.7710295E-1,5.9395343E-2,6.488632E-1,7.231467E-2,2.0996621E-1,2.00001E0,5.792793E-1,1.869151E-1,7.983884E-1,5.401952E-1,1.1515568E-1,-2.2030964E-1,1.1560628E-1,8.269336E-2,-0E0,2.7161012E-3,-4.231025E-2,6.8138726E-2,2.421706E-2,-2.1048902E-2,9.396413E-3,-5.5145886E-2,4.745951E-2,-3.341038E-2,-1.9862646E-1],"split_indices":[108,219,340,254,347,44,34,211,185,258,296,0,191,0,0,0,0,0,0,0,0,0,0,0,0],"split_type":[0,0,0,0,0,0,0,0,0,0,0,0,0,0,0,0,0,0,0,0,0,0,0,0,0],"sum_hessian":[1.9833E4,1.9291E4,5.42E2,1.6555E4,2.736E3,5.15E2,2.7E1,1.5825E4,7.3E2,2.565E3,1.71E2,9E0,5.06E2,2.5E1,2E0,1.5527E4,2.98E2,1.32E2,5.98E2,2.138E3,4.27E2,2.1E1,1.5E2,4.99E2,7E0],"tree_param":{"num_deleted":"0","num_feature":"350","num_nodes":"25","size_leaf_vector":"1"}},{"base_weights":[4.370509E-5,-3.3328593E-2,3.628364E-1,2.2323858E-3,-4.1554248E-1,9.09128E-1,2.4471453E-1,-1.5583745E-2,7.716101E-1,-1.2795275E0,-2.7205175E-1,6.6129535E-1,2.2908747E0,3.092826E-1,-1.6479139E0,5.953261E-3,-7.031458E-3,6.422371E-2,9.224947E-3,-1.08299986E-1,-4.255605E-2,-1.8225988E-2,4.5227032E-2,5.037656E-2,-1.2061102E-2,-2.562058E-2,1.189806E-1,1.1932159E-2,8.919659E-2,1.9221604E-2,-9.070697E-2],"categories":[],"categories_nodes":[],"categories_segments":[],"categories_sizes":[],"default_left":[1,1,0,1,0,1,1,0,0,0,1,0,0,1,0,0,0,0,0,0,0,0,0,0,0,0,0,0,0,0,0],"id":39,"left_children":[1,3,5,7,9,11,13,15,17,19,21,23,25,27,29,-1,-1,-1,-1,-1,-1,-1,-1,-1,-1,-1,-1,-1,-1,-1,-1],"loss_changes":[2.385681E2,2.4528311E2,1.0631871E2,2.2650621E2,1.8930002E2,9.768692E1,1.6689236E2,2.7149426E2,1.1164302E2,7.9437836E1,1.4356311E2,7.9059654E1,1.3098175E1,1.3637778E2,1.6614517E1,0E0,0E0,0E0,0E0,0E0,0E0,0E0,0E0,0E0,0E0,0E0,0E0,0E0,0E0,0E0,0E0],"parents":[2147483647,0,0,1,1,2,2,3,3,4,4,5,5,6,6,7,7,8,8,9,9,10,10,11,11,12,12,13,13,14,14],"right_children":[2,4,6,8,10,12,14,16,18,20,22,24,26,28,30,-1,-1,-1,-1,-1,-1,-1,-1,-1,-1,-1,-1,-1,-1,-1,-1],"split_conditions":[3.5201487E-1,1.3005257E-1,1.6759036E-1,2.0265077E-1,5.6739616E-1,1.22474685E-1,1.3862067E-1,1.2669175E0,3.6678585E-1,3.092999E-1,5.161487E-1,2.2835392E-1,7.205159E-1,2.8929737E-1,2.5451666E-1,5.953261E-3,-7.031458E-3,6.422371E-2,9.224947E-3,-1.08299986E-1,-4.255605E-2,-1.8225988E-2,4.5227032E-2,5.037656E-2,-1.2061102E-2,-2.562058E-2,1.189806E-1,1.1932159E-2,8.919659E-2,1.9221604E-2,-9.070697E-2],"split_indices":[65,205,187,185,202,234,150,298,159,257,307,226,58,223,282,0,0,0,0,0,0,0,0,0,0,0,0,0,0,0,0],"split_type":[0,0,0,0,0,0,0,0,0,0,0,0,0,0,0,0,0,0,0,0,0,0,0,0,0,0,0,0,0,0,0],"sum_hessian":[1.9689E4,1.803E4,1.659E3,1.6495E4,1.535E3,2.93E2,1.366E3,1.6122E4,3.73E2,2.17E2,1.318E3,2.5E2,4.3E1,1.322E3,4.4E1,7.761E3,8.361E3,1.98E2,1.75E2,6.9E1,1.48E2,1.223E3,9.5E1,1.81E2,6.9E1,1E0,4.2E1,1.263E3,5.9E1,3E0,4.1E1],"tree_param":{"num_deleted":"0","num_feature":"350","num_nodes":"31","size_leaf_vector":"1"}},{"base_weights":[1.6692517E-2,-1.698707E-2,3.42791E-1,1.939624E-2,-3.800223E-1,-1.0365001E-1,3.6797264E-1,-5.3466403E-1,4.5613714E-2,1.0699623E0,-4.4905752E-1,3.0817086E-1,1.2689611E0,-1.6639026E-2,-7.411866E-2,1.7016103E-2,9.1382335E-6,1.1926811E-2,8.1002936E-2,1.8349689E-2,-2.7488796E-2,1.2440919E-2,5.9711654E-2,7.704827E-2,2.884613E-2],"categories":[],"categories_nodes":[],"categories_segments":[],"categories_sizes":[],"default_left":[1,1,0,0,0,0,1,1,0,0,0,1,1,0,0,0,0,0,0,0,0,0,0,0,0],"id":40,"left_children":[1,3,5,7,9,-1,11,13,15,17,19,21,23,-1,-1,-1,-1,-1,-1,-1,-1,-1,-1,-1,-1],"loss_changes":[2.1669585E2,2.3620897E2,1.1226997E2,2.3569762E2,1.6323296E2,0E0,9.7368195E1,1.388417E2,2.0747783E2,3.252923E1,1.2818295E2,8.927832E1,1.9322876E1,0E0,0E0,0E0,0E0,0E0,0E0,0E0,0E0,0E0,0E0,0E0,0E0],"parents":[2147483647,0,0,1,1,2,2,3,3,4,4,6,6,7,7,8,8,9,9,10,10,11,11,12,12],"right_children":[2,4,6,8,10,-1,12,14,16,18,20,22,24,-1,-1,-1,-1,-1,-1,-1,-1,-1,-1,-1,-1],"split_conditions":[3.0030653E-1,3.4892306E-1,6.1406225E-1,1.8563035E-1,4.0331468E-1,-1.0365001E-1,1.3029341E-1,5.5591416E-2,1.0177004E-1,1.5632576E-1,3.458608E-2,1.4107308E-1,1.1824293E-1,-1.6639026E-2,-7.411866E-2,1.7016103E-2,9.1382335E-6,1.1926811E-2,8.1002936E-2,1.8349689E-2,-2.7488796E-2,1.2440919E-2,5.9711654E-2,7.704827E-2,2.884613E-2],"split_indices":[65,258,19,198,321,0,131,139,150,235,294,227,203,0,0,0,0,0,0,0,0,0,0,0,0],"split_type":[0,0,0,0,0,0,0,0,0,0,0,0,0,0,0,0,0,0,0,0,0,0,0,0,0],"sum_hessian":[1.9714E4,1.7868E4,1.846E3,1.624E4,1.628E3,1.8E1,1.828E3,7.32E2,1.5508E4,7.3E1,1.555E3,1.716E3,1.12E2,6.05E2,1.27E2,2.069E3,1.3439E4,3E1,4.3E1,1.7E2,1.385E3,1.61E3,1.06E2,7.9E1,3.3E1],"tree_param":{"num_deleted":"0","num_feature":"350","num_nodes":"25","size_leaf_vector":"1"}},{"base_weights":[-1.2080811E-4,-3.8093083E-2,2.9102486E-1,5.1637816E-1,-5.9748694E-2,1.84023E-1,9.5034677E-1,3.3212793E-1,1.2830968E0,1.466894E0,-6.821185E-2,1.0667254E0,1.05789036E-1,7.99107E-1,2.7552056E0,2.2780363E-2,-3.402443E-2,7.2978154E-2,5.30021E-2,-1.1771231E-2,7.7583306E-2,-6.0168835E-3,8.389847E-3,6.2495816E-2,-2.8530308E-3,-3.4315133E-4,3.5346344E-2,2.6454935E-2,9.565964E-2,2.8406588E-2,1.637267E-1],"categories":[],"categories_nodes":[],"categories_segments":[],"categories_sizes":[],"default_left":[1,0,1,1,0,0,1,1,1,0,1,1,1,1,0,0,0,0,0,0,0,0,0,0,0,0,0,0,0,0,0],"id":41,"left_children":[1,3,5,7,9,11,13,15,17,19,21,23,25,27,29,-1,-1,-1,-1,-1,-1,-1,-1,-1,-1,-1,-1,-1,-1,-1,-1],"loss_changes":[2.1954565E2,2.1088086E2,1.6088492E2,9.2003174E1,2.1801085E2,1.3555096E2,8.309744E1,6.696744E1,2.1919403E0,1.4444138E1,2.0701709E2,3.3606537E1,1.2319792E2,8.680707E1,2.3477722E1,0E0,0E0,0E0,0E0,0E0,0E0,0E0,0E0,0E0,0E0,0E0,0E0,0E0,0E0,0E0,0E0],"parents":[2147483647,0,0,1,1,2,2,3,3,4,4,5,5,6,6,7,7,8,8,9,9,10,10,11,11,12,12,13,13,14,14],"right_children":[2,4,6,8,10,12,14,16,18,20,22,24,26,28,30,-1,-1,-1,-1,-1,-1,-1,-1,-1,-1,-1,-1,-1,-1,-1,-1],"split_conditions":[5.3422045E-2,7.809741E-2,2.2408329E-1,4.322459E-2,2.1428104E-2,5.297758E-1,1.2928295E-1,2.3409355E-2,2.963585E-2,3.3356372E-1,1.3193491E-1,1.3432518E-1,3.6648688E-1,1.0139943E-1,6.8944675E-1,2.2780363E-2,-3.402443E-2,7.2978154E-2,5.30021E-2,-1.1771231E-2,7.7583306E-2,-6.0168835E-3,8.389847E-3,6.2495816E-2,-2.8530308E-3,-3.4315133E-4,3.5346344E-2,2.6454935E-2,9.565964E-2,2.8406588E-2,1.637267E-1],"split_indices":[102,250,122,118,279,254,287,132,278,6,298,239,86,217,65,0,0,0,0,0,0,0,0,0,0,0,0,0,0,0,0],"split_type":[0,0,0,0,0,0,0,0,0,0,0,0,0,0,0,0,0,0,0,0,0,0,0,0,0,0,0,0,0,0,0],"sum_hessian":[1.9868E4,1.7578E4,2.29E3,6.59E2,1.6919E4,1.972E3,3.18E2,5.33E2,1.26E2,9.2E1,1.6827E4,1.59E2,1.813E3,2.95E2,2.3E1,4.76E2,5.7E1,6.6E1,6E1,4E0,8.8E1,1.3785E4,3.042E3,1.37E2,2.2E1,1.527E3,2.86E2,2.39E2,5.6E1,5E0,1.8E1],"tree_param":{"num_deleted":"0","num_feature":"350","num_nodes":"31","size_leaf_vector":"1"}},{"base_weights":[4.060903E-3,-1.3469398E-2,7.057218E-1,-3.241892E-2,5.5127895E-1,6.0296816E-1,1.3973652E-1,-5.09023E-2,6.2362105E-1,7.590363E-1,-4.0748736E-1,6.7918044E-1,-1.1713778E0,1.4471701E-2,-4.46207E-3,3.680185E-2,-8.266341E-2,-2.1669304E-2,4.5523405E-2,2.5671636E-4,-7.692019E-2,6.1323136E-2,2.3460526E-2,-1.231702E-1,-2.4913406E-2],"categories":[],"categories_nodes":[],"categories_segments":[],"categories_sizes":[],"default_left":[1,1,1,1,1,1,0,0,1,0,1,0,0,0,0,0,0,0,0,0,0,0,0,0,0],"id":42,"left_children":[1,3,5,7,9,11,-1,13,15,17,19,21,23,-1,-1,-1,-1,-1,-1,-1,-1,-1,-1,-1,-1],"loss_changes":[2.4221695E2,2.0506007E2,9.964957E1,2.2483727E2,1.24381714E2,6.261862E1,0E0,2.3552379E2,1.3078522E2,9.30853E1,5.2571648E1,4.9253235E1,1.3815559E1,0E0,0E0,0E0,0E0,0E0,0E0,0E0,0E0,0E0,0E0,0E0,0E0],"parents":[2147483647,0,0,1,1,2,2,3,3,4,4,5,5,7,7,8,8,9,9,10,10,11,11,12,12],"right_children":[2,4,6,8,10,12,-1,14,16,18,20,22,24,-1,-1,-1,-1,-1,-1,-1,-1,-1,-1,-1,-1],"split_conditions":[1.6710359E-1,4.71849E-1,2.1244775E-1,4.7952017E-1,2.4590091E-1,8.48678E-2,1.3973652E-1,4.8865297E-1,7.096247E-2,1.6645958E-1,7.7415586E-2,8.759756E-2,1.05942756E-1,1.4471701E-2,-4.46207E-3,3.680185E-2,-8.266341E-2,-2.1669304E-2,4.5523405E-2,2.5671636E-4,-7.692019E-2,6.1323136E-2,2.3460526E-2,-1.231702E-1,-2.4913406E-2],"split_indices":[242,86,185,30,226,165,0,311,282,220,268,167,170,0,0,0,0,0,0,0,0,0,0,0,0],"split_type":[0,0,0,0,0,0,0,0,0,0,0,0,0,0,0,0,0,0,0,0,0,0,0,0,0],"sum_hessian":[1.9662E4,1.9183E4,4.79E2,1.8562E4,6.21E2,4.58E2,2.1E1,1.8055E4,5.07E2,5.11E2,1.1E2,4.4E2,1.8E1,1.826E3,1.6229E4,4.84E2,2.3E1,5.7E1,4.54E2,8.1E1,2.9E1,1.2E2,3.2E2,5E0,1.3E1],"tree_param":{"num_deleted":"0","num_feature":"350","num_nodes":"25","size_leaf_vector":"1"}},{"base_weights":[-1.078861E-2,1.9093664E-2,-4.3287566E-1,4.429157E-2,-4.8757514E-1,-4.644339E-2,-7.491182E-1,2.7146387E-1,4.8522803E-4,-5.8947146E-1,1.122932E0,-1.8883371E-1,1.390395E0,-9.127777E-1,1.3076468E-1,7.698118E-3,4.0924948E-2,-2.2154453E-3,1.5214262E-2,-2.3043064E-2,-8.324807E-2,1.12259544E-1,1.3706884E-2,-1.9450175E-3,-5.6083698E-2,-2.091297E-2,8.427936E-2,4.1868996E-2,-5.1446725E-2,-7.871499E-2,1.6749023E-2],"categories":[],"categories_nodes":[],"categories_segments":[],"categories_sizes":[],"default_left":[1,1,0,0,1,1,1,1,1,1,0,1,0,0,0,0,0,0,0,0,0,0,0,0,0,0,0,0,0,0,0],"id":43,"left_children":[1,3,5,7,9,11,13,15,17,19,21,23,25,27,29,-1,-1,-1,-1,-1,-1,-1,-1,-1,-1,-1,-1,-1,-1,-1,-1],"loss_changes":[2.4933298E2,2.3528712E2,1.5929106E2,1.7474312E2,1.4365869E2,1.2037099E2,1.039032E2,1.8187141E2,2.006641E2,1.1186795E2,4.7658318E1,7.4622856E1,2.9635414E1,1.2415277E2,3.9254417E1,0E0,0E0,0E0,0E0,0E0,0E0,0E0,0E0,0E0,0E0,0E0,0E0,0E0,0E0,0E0,0E0],"parents":[2147483647,0,0,1,1,2,2,3,3,4,4,5,5,6,6,7,7,8,8,9,9,10,10,11,11,12,12,13,13,14,14],"right_children":[2,4,6,8,10,12,14,16,18,20,22,24,26,28,30,-1,-1,-1,-1,-1,-1,-1,-1,-1,-1,-1,-1,-1,-1,-1,-1],"split_conditions":[2.0728414E-1,1.5098862E-1,1.9791676E-1,1.1987709E-1,1.7502557E-1,2.839864E-1,7.798539E-2,8.0733895E-2,8.624571E-2,4.2474147E-2,1.06545515E-1,8.6324476E-2,4.8298232E-2,7.2135043E-1,2.3495397E-1,7.698118E-3,4.0924948E-2,-2.2154453E-3,1.5214262E-2,-2.3043064E-2,-8.324807E-2,1.12259544E-1,1.3706884E-2,-1.9450175E-3,-5.6083698E-2,-2.091297E-2,8.427936E-2,4.1868996E-2,-5.1446725E-2,-7.871499E-2,1.6749023E-2],"split_indices":[166,202,145,283,270,325,187,274,196,230,166,285,102,66,295,0,0,0,0,0,0,0,0,0,0,0,0,0,0,0,0],"split_type":[0,0,0,0,0,0,0,0,0,0,0,0,0,0,0,0,0,0,0,0,0,0,0,0,0,0,0,0,0,0,0],"sum_hessian":[1.975E4,1.8444E4,1.306E3,1.7572E4,8.72E2,5.89E2,7.17E2,2.838E3,1.4734E4,8.21E2,5.1E1,5.37E2,5.2E1,6.05E2,1.12E2,2.338E3,5E2,1.284E4,1.894E3,7.35E2,8.6E1,2.1E1,3E1,4.64E2,7.3E1,7E0,4.5E1,3.7E1,5.68E2,1.1E1,1.01E2],"tree_param":{"num_deleted":"0","num_feature":"350","num_nodes":"31","size_leaf_vector":"1"}},{"base_weights":[7.175966E-3,-3.4797457E-1,3.6151554E-2,-4.2704025E-1,5.772136E-1,6.574973E-2,-3.3628097E-1,-3.7656003E-1,-1.7710869E0,-4.2844355E-1,9.1917384E-1,-1.77807E-1,1.1702105E-1,-4.35223E-1,3.500754E-1,-1.7672278E-2,-1.5279503E-1,-0E0,-1.08782314E-1,1.3704813E-2,-7.733806E-2,-1.303273E-2,5.6690972E-2,-1.9015076E-3,-2.8637255E-2,1.16008585E-2,-2.4468491E-3,-2.3584208E-2,7.363635E-2,-1.0894799E-2,6.585525E-2],"categories":[],"categories_nodes":[],"categories_segments":[],"categories_sizes":[],"default_left":[0,1,1,1,0,0,1,1,0,0,0,1,0,1,1,0,0,0,0,0,0,0,0,0,0,0,0,0,0,0,0],"id":44,"left_children":[1,3,5,7,9,11,13,15,17,19,21,23,25,27,29,-1,-1,-1,-1,-1,-1,-1,-1,-1,-1,-1,-1,-1,-1,-1,-1],"loss_changes":[2.028818E2,1.0894641E2,2.0098532E2,9.1278534E1,4.087487E1,2.1105368E2,9.132948E1,7.915068E1,3.5636795E1,2.4630177E1,2.3017677E1,1.6185983E2,2.6661835E2,8.1864624E1,9.365901E1,0E0,0E0,0E0,0E0,0E0,0E0,0E0,0E0,0E0,0E0,0E0,0E0,0E0,0E0,0E0,0E0],"parents":[2147483647,0,0,1,1,2,2,3,3,4,4,5,5,6,6,7,7,8,8,9,9,10,10,11,11,12,12,13,13,14,14],"right_children":[2,4,6,8,10,12,14,16,18,20,22,24,26,28,30,-1,-1,-1,-1,-1,-1,-1,-1,-1,-1,-1,-1,-1,-1,-1,-1],"split_conditions":[2.00001E0,8.251732E-2,5.808062E-2,4.8539486E-2,2.9503617E-1,5.039736E-1,2.0434621E-1,2.0931965E-1,2.5599843E-1,1.1580051E-1,5.3956056E-1,9.004801E-2,3.3330253E-1,3.422819E-1,8.5504666E-2,-1.7672278E-2,-1.5279503E-1,-0E0,-1.08782314E-1,1.3704813E-2,-7.733806E-2,-1.303273E-2,5.6690972E-2,-1.9015076E-3,-2.8637255E-2,1.16008585E-2,-2.4468491E-3,-2.3584208E-2,7.363635E-2,-1.0894799E-2,6.585525E-2],"split_indices":[329,196,237,126,233,207,187,271,329,113,328,226,163,266,285,0,0,0,0,0,0,0,0,0,0,0,0,0,0,0,0],"split_type":[0,0,0,0,0,0,0,0,0,0,0,0,0,0,0,0,0,0,0,0,0,0,0,0,0,0,0,0,0,0,0],"sum_hessian":[1.9728E4,1.486E3,1.8242E4,1.37E3,1.16E2,1.6901E4,1.341E3,1.322E3,4.8E1,2.9E1,8.7E1,2.937E3,1.3964E4,1.173E3,1.68E2,1.312E3,1E1,9E0,3.9E1,1.8E1,1.1E1,1.3E1,7.4E1,2.171E3,7.66E2,8.25E3,5.714E3,1.152E3,2.1E1,1.06E2,6.2E1],"tree_param":{"num_deleted":"0","num_feature":"350","num_nodes":"31","size_leaf_vector":"1"}},{"base_weights":[-1.1104272E-3,-6.11877E-3,2.4002542E0,3.1207463E-1,-3.4984887E-2,2.4528828E0,-0E0,1.2793267E-1,1.0127807E0,-4.834484E-2,6.927307E-1,2.515045E0,3.4059923E-2,1.384935E-3,4.2002726E-2,6.1261486E-2,-6.4888634E-3,-1.9761862E-3,-6.2598616E-2,2.9423976E-2,1.3908204E-1,5.6005873E-2,1.3157518E-1],"categories":[],"categories_nodes":[],"categories_segments":[],"categories_sizes":[],"default_left":[1,0,1,1,1,0,0,1,1,1,1,0,0,0,0,0,0,0,0,0,0,0,0],"id":45,"left_children":[1,3,5,7,9,11,-1,13,15,17,19,21,-1,-1,-1,-1,-1,-1,-1,-1,-1,-1,-1],"loss_changes":[2.3692535E2,1.8134975E2,4.4552917E0,2.1116632E2,1.7584924E2,1.0939178E0,0E0,9.247804E1,8.347955E1,1.8820857E2,6.767149E1,1.3497467E0,0E0,0E0,0E0,0E0,0E0,0E0,0E0,0E0,0E0,0E0,0E0],"parents":[2147483647,0,0,1,1,2,2,3,3,4,4,5,5,7,7,8,8,9,9,10,10,11,11],"right_children":[2,4,6,8,10,12,-1,14,16,18,20,22,-1,-1,-1,-1,-1,-1,-1,-1,-1,-1,-1],"split_conditions":[5.414986E-1,1.7162225E-1,1.4090171E-1,8.232701E-2,2.3124196E-1,3.123608E-1,-0E0,3.432653E-2,1.7875598E-1,2.1668005E-1,2.271013E-1,2.00001E0,3.4059923E-2,1.384935E-3,4.2002726E-2,6.1261486E-2,-6.4888634E-3,-1.9761862E-3,-6.2598616E-2,2.9423976E-2,1.3908204E-1,5.6005873E-2,1.3157518E-1],"split_indices":[225,225,102,278,242,130,0,172,226,191,185,77,0,0,0,0,0,0,0,0,0,0,0],"split_type":[0,0,0,0,0,0,0,0,0,0,0,0,0,0,0,0,0,0,0,0,0,0,0],"sum_hessian":[1.9797E4,1.9757E4,4E1,1.641E3,1.8116E4,3.9E1,1E0,1.301E3,3.4E2,1.7791E4,3.25E2,3.7E1,2E0,1.142E3,1.59E2,2.87E2,5.3E1,1.7663E4,1.28E2,3.11E2,1.4E1,4E0,3.3E1],"tree_param":{"num_deleted":"0","num_feature":"350","num_nodes":"23","size_leaf_vector":"1"}},{"base_weights":[-4.8071216E-3,7.448647E-3,-8.468477E-1,6.5619275E-2,-1.8774034E-1,-9.793408E-1,1.9519956E0,1.398742E-1,-2.2267814E-1,-1.0783836E-1,-8.236498E-1,-8.435847E-1,-1.69258E-1,1.4913242E-1,4.3625344E-2,1.7553521E-2,-1.8047172E-3,-7.783603E-3,-5.7107396E-2,1.0899468E-3,-2.7450537E-2,-4.7942795E-2,4.125648E-2,-4.703497E-2,8.093201E-2],"categories":[],"categories_nodes":[],"categories_segments":[],"categories_sizes":[],"default_left":[1,1,1,1,1,1,0,0,1,1,1,1,0,0,0,0,0,0,0,0,0,0,0,0,0],"id":46,"left_children":[1,3,5,7,9,11,13,15,17,19,21,23,-1,-1,-1,-1,-1,-1,-1,-1,-1,-1,-1,-1,-1],"loss_changes":[2.0429472E2,2.2104153E2,1.0674031E2,3.2118793E2,2.2651724E2,8.386636E1,9.933552E0,4.4364685E2,1.8843939E2,2.2744379E2,1.1187463E2,6.3115295E1,0E0,0E0,0E0,0E0,0E0,0E0,0E0,0E0,0E0,0E0,0E0,0E0,0E0],"parents":[2147483647,0,0,1,1,2,2,3,3,4,4,5,5,6,6,7,7,8,8,9,9,10,10,11,11],"right_children":[2,4,6,8,10,12,14,16,18,20,22,24,-1,-1,-1,-1,-1,-1,-1,-1,-1,-1,-1,-1,-1],"split_conditions":[3.4684718E-1,3.9250925E-2,2.1591309E-1,1.4103817E-2,3.468792E-2,1.7661467E-1,2.00001E0,1.0862602E0,3.7814807E-2,3.4013223E-2,8.067034E-2,3.106721E-1,-1.69258E-1,1.4913242E-1,4.3625344E-2,1.7553521E-2,-1.8047172E-3,-7.783603E-3,-5.7107396E-2,1.0899468E-3,-2.7450537E-2,-4.7942795E-2,4.125648E-2,-4.703497E-2,8.093201E-2],"split_indices":[223,205,192,203,290,171,78,167,154,255,252,161,0,0,0,0,0,0,0,0,0,0,0,0,0],"split_type":[0,0,0,0,0,0,0,0,0,0,0,0,0,0,0,0,0,0,0,0,0,0,0,0,0],"sum_hessian":[1.9754E4,1.9471E4,2.83E2,1.5003E4,4.468E3,2.71E2,1.2E1,1.1932E4,3.071E3,3.971E3,4.97E2,2.58E2,1.3E1,5E0,7E0,5.424E3,6.508E3,2.864E3,2.07E2,3.069E3,9.02E2,4.6E2,3.7E1,2.49E2,9E0],"tree_param":{"num_deleted":"0","num_feature":"350","num_nodes":"25","size_leaf_vector":"1"}},{"base_weights":[-1.1071572E-3,-3.6353722E-2,2.6317906E-1,3.2386896E-1,-6.71147E-2,1.5993357E-1,9.548924E-1,7.5671804E-1,1.2421677E-2,4.0738016E-1,-9.635455E-2,8.906591E-2,1.1241896E0,4.5515147E-1,1.5961199E0,5.3146254E-2,4.780245E-3,1.0285842E-1,-1.8349088E-3,-5.1563103E-2,2.5318101E-2,-6.7778393E-3,1.2643191E-2,7.755627E-3,-4.117551E-2,4.6020407E-2,1.795276E-1,-9.540306E-2,3.3241697E-2,-2.3884138E-3,8.5374646E-2],"categories":[],"categories_nodes":[],"categories_segments":[],"categories_sizes":[],"default_left":[1,0,1,1,0,1,1,0,0,0,1,1,1,0,0,0,0,0,0,0,0,0,0,0,0,0,0,0,0,0,0],"id":47,"left_children":[1,3,5,7,9,11,13,15,17,19,21,23,25,27,29,-1,-1,-1,-1,-1,-1,-1,-1,-1,-1,-1,-1,-1,-1,-1,-1],"loss_changes":[1.8399208E2,1.9314256E2,1.6526134E2,1.8443007E2,2.2284143E2,1.3760242E2,9.470261E1,1.1531583E2,8.133542E1,1.3297601E2,2.072307E2,1.1352789E2,6.37984E1,8.538156E1,2.4895508E1,0E0,0E0,0E0,0E0,0E0,0E0,0E0,0E0,0E0,0E0,0E0,0E0,0E0,0E0,0E0,0E0],"parents":[2147483647,0,0,1,1,2,2,3,3,4,4,5,5,6,6,7,7,8,8,9,9,10,10,11,11,12,12,13,13,14,14],"right_children":[2,4,6,8,10,12,14,16,18,20,22,24,26,28,30,-1,-1,-1,-1,-1,-1,-1,-1,-1,-1,-1,-1,-1,-1,-1,-1],"split_conditions":[6.447991E-2,8.512943E-1,1.3367017E-1,6.2052555E-2,1E0,1.6762626E-1,2.0523183E-1,2.738361E-1,2.8916606E-1,2.396833E-1,5.9215147E-2,1.6182767E-1,1E0,1.6715589E-1,8.4319746E-1,5.3146254E-2,4.780245E-3,1.0285842E-1,-1.8349088E-3,-5.1563103E-2,2.5318101E-2,-6.7778393E-3,1.2643191E-2,7.755627E-3,-4.117551E-2,4.6020407E-2,1.795276E-1,-9.540306E-2,3.3241697E-2,-2.3884138E-3,8.5374646E-2],"split_indices":[217,326,234,258,325,278,163,294,323,202,297,205,334,207,326,0,0,0,0,0,0,0,0,0,0,0,0,0,0,0,0],"split_type":[0,0,0,0,0,0,0,0,0,0,0,0,0,0,0,0,0,0,0,0,0,0,0,0,0,0,0,0,0,0,0],"sum_hessian":[1.9762E4,1.7439E4,2.323E3,1.37E3,1.6069E4,2.023E3,3E2,5.72E2,7.98E2,9.31E2,1.5138E4,1.886E3,1.37E2,1.7E2,1.3E2,3.9E2,1.82E2,1.8E1,7.8E2,5.9E1,8.72E2,1.3612E4,1.526E3,1.76E3,1.26E2,1.28E2,9E0,1.3E1,1.57E2,8E0,1.22E2],"tree_param":{"num_deleted":"0","num_feature":"350","num_nodes":"31","size_leaf_vector":"1"}},{"base_weights":[-3.8373875E-3,-3.7730567E-2,2.9037008E-1,-3.2027356E-2,-1.7621368E0,9.1147006E-1,9.100925E-2,-5.3103473E-2,4.045366E-1,-1.2609903E0,-1.9957708E-1,1.1241897E0,-2.4806965E-2,-3.4086463E-1,2.475148E-1,5.221027E-5,-1.2249614E-2,-6.9008574E-2,2.271791E-2,-2.8608894E-2,-9.1454335E-2,1.9660523E-2,7.191878E-2,-2.6396662E-2,7.009407E-2,3.3019554E-2,-2.3685023E-2,1.601006E-2,-6.623655E-2],"categories":[],"categories_nodes":[],"categories_segments":[],"categories_sizes":[],"default_left":[1,1,1,1,0,1,0,1,0,1,0,0,1,0,1,0,0,0,0,0,0,0,0,0,0,0,0,0,0],"id":48,"left_children":[1,3,5,7,9,11,13,15,17,19,-1,21,23,25,27,-1,-1,-1,-1,-1,-1,-1,-1,-1,-1,-1,-1,-1,-1],"loss_changes":[1.9655501E2,1.7300179E2,2.5151947E2,1.6206989E2,5.714145E1,9.896481E1,1.0433008E2,1.7489803E2,7.227583E1,1.6927078E1,0E0,9.1073E1,6.634113E1,5.4750565E1,1.2951645E2,0E0,0E0,0E0,0E0,0E0,0E0,0E0,0E0,0E0,0E0,0E0,0E0,0E0,0E0],"parents":[2147483647,0,0,1,1,2,2,3,3,4,4,5,5,6,6,7,7,8,8,9,9,11,11,12,12,13,13,14,14],"right_children":[2,4,6,8,10,12,14,16,18,20,-1,22,24,26,28,-1,-1,-1,-1,-1,-1,-1,-1,-1,-1,-1,-1,-1,-1],"split_conditions":[2.571283E-2,7.302543E-1,5.1335648E-2,2.652074E-1,3.670472E-1,4.0838152E-2,5.4854378E-2,1.47108985E-2,